1221 8 BEM3DMeshData
0 1.0259418401750567e-03 -1.9516708859739762e-03 -5.8449192330813397e-04 -1.7916947602894320e-03 9.9486773596051559e-04 0.0000000000000000e+00 0.0000000000000000e+00 0.0000000000000000e+00
2 5.8836577538884990e-04 -1.1478439019916179e-03 -2.3901375773530560e-04 -1.0926624271781846e-03 4.3410201726808834e-04 0.0000000000000000e+00 0.0000000000000000e+00 0.0000000000000000e+00
3 1.2049762538574064e-03 6.3068936403921620e-05 2.3912908607356472e-03 2.4045947633078088e-03 -8.2783274220784599e-05 0.0000000000000000e+00 0.0000000000000000e+00 0.0000000000000000e+00
4 1.1129784663234663e-03 3.9235411415776948e-04 2.1762984405930734e-03 2.1901571383731375e-03 -3.7785829348688888e-04 0.0000000000000000e+00 0.0000000000000000e+00 0.0000000000000000e+00
5 1.0488975004836875e-03 -2.7586929071077830e-04 2.0673564122202829e-03 2.0644342907465999e-03 -3.5370669488093618e-04 0.0000000000000000e+00 0.0000000000000000e+00 0.0000000000000000e+00
6 9.6322650448736418e-04 1.7520318335132743e-03 -7.7084149156569708e-04 -1.6944505328697576e-03 -9.1159501527071564e-04 0.0000000000000000e+00 0.0000000000000000e+00 0.0000000000000000e+00
7 6.7607240274159908e-04 1.3377599573365796e-03 -1.3957500985677094e-04 -1.1798502581115966e-03 -6.5848406991398550e-04 0.0000000000000000e+00 0.0000000000000000e+00 0.0000000000000000e+00
8 7.3061435026070942e-04 1.4250282601989096e-03 -2.8793166912386136e-04 -1.2019209464984464e-03 -8.2857298221138218e-04 0.0000000000000000e+00 0.0000000000000000e+00 0.0000000000000000e+00
9 7.6610437887546690e-04 -1.1253467146897845e-03 -1.0316901669530580e-03 -2.2174290650059045e-04 1.5139572654553817e-03 0.0000000000000000e+00 0.0000000000000000e+00 0.0000000000000000e+00
10 1.1702034788594897e-03 -1.6335000751772936e-03 -1.6528160692939760e-03 2.0990402994302592e-05 2.3366308739835714e-03 0.0000000000000000e+00 0.0000000000000000e+00 0.0000000000000000e+00
11 1.0480239325307387e-03 -1.1242772087635788e-03 -1.7506848716123365e-03 -2.5789019725038338e-04 2.0771642970820480e-03 0.0000000000000000e+00 0.0000000000000000e+00 0.0000000000000000e+00
12 1.0401180893147772e-03 -1.7725894703740843e-03 -1.0624986395062850e-03 2.0745997028477374e-03 1.0818370200747559e-04 0.0000000000000000e+00 0.0000000000000000e+00 0.0000000000000000e+00
13 9.1699446475973978e-04 -1.2406269179420697e-03 -1.3344492183076208e-03 1.8131498500340482e-03 2.6224998035028765e-04 0.0000000000000000e+00 0.0000000000000000e+00 0.0000000000000000e+00
14 7.2877748309071501e-04 -1.2339051662494766e-03 -7.6246255535465505e-04 1.4324935072304672e-03 2.6189241655464874e-04 0.0000000000000000e+00 0.0000000000000000e+00 0.0000000000000000e+00
15 1.0247188392133373e-03 3.4934210868290089e-04 -2.0081724368170794e-03 3.3809252132050929e-04 2.0180264479269482e-03 0.0000000000000000e+00 0.0000000000000000e+00 0.0000000000000000e+00
16 9.8637518393032003e-04 9.2678384212242570e-05 -1.9600750581064775e-03 5.2967998092410325e-05 1.9690904598352326e-03 0.0000000000000000e+00 0.0000000000000000e+00 0.0000000000000000e+00
17 7.2927999362298759e-04 -1.5151280362629590e-04 -1.4442678599258406e-03 2.1788233068951974e-04 1.4406830904293705e-03 0.0000000000000000e+00 0.0000000000000000e+00 0.0000000000000000e+00
18 8.9769312880204658e-04 -1.5462731501208107e-03 -8.9121439724589762e-04 -3.6491483235777730e-04 1.7556819965895254e-03 0.0000000000000000e+00 0.0000000000000000e+00 0.0000000000000000e+00
19 1.0309243991876770e-03 -1.9682056133378503e-03 -5.6930022451235512e-04 -2.1006291214201444e-04 2.0482704771184312e-03 0.0000000000000000e+00 0.0000000000000000e+00 0.0000000000000000e+00
20 6.4210534745337002e-04 -1.0887723868161462e-03 -6.7169434666648851e-04 -9.9500062417343652e-05 1.2791456329751217e-03 0.0000000000000000e+00 0.0000000000000000e+00 0.0000000000000000e+00
21 7.0563780334655601e-04 1.3394671130603562e-03 -4.2280654395614750e-04 1.3070129107676874e-03 -5.2903062745899686e-04 0.0000000000000000e+00 0.0000000000000000e+00 0.0000000000000000e+00
22 1.0048768739693262e-03 1.8096960872152090e-03 -8.4090049690749551e-04 1.9286046862198622e-03 -5.5672409241542121e-04 0.0000000000000000e+00 0.0000000000000000e+00 0.0000000000000000e+00
23 7.5283396526209091e-04 1.2612817978826978e-03 -8.1016831157634090e-04 1.3786495944141039e-03 -6.0126245178388502e-04 0.0000000000000000e+00 0.0000000000000000e+00 0.0000000000000000e+00
24 3.6381271623674388e-04 -7.2475921761534041e-04 5.2106900446025630e-05 -4.0714134535723058e-04 6.0208880988878036e-04 0.0000000000000000e+00 0.0000000000000000e+00 0.0000000000000000e+00
25 5.2341338127423161e-04 -1.0387989762578457e-03 1.0462128876510158e-04 -7.0313971318349455e-04 7.7387909394651267e-04 0.0000000000000000e+00 0.0000000000000000e+00 0.0000000000000000e+00
26 6.3307217514318569e-04 -1.2278385165347418e-03 2.8207513952899525e-04 -7.6828331273010020e-04 1.0053262861604568e-03 0.0000000000000000e+00 0.0000000000000000e+00 0.0000000000000000e+00
27 6.6350940380839249e-04 -8.9420156866876644e-04 9.7427721443342486e-04 1.9614968707602014e-04 -1.3110194496956460e-03 0.0000000000000000e+00 0.0000000000000000e+00 0.0000000000000000e+00
28 1.1198660874899560e-03 -1.6190431223000951e-03 1.5238298422219534e-03 6.1838266306596368e-04 -2.1493306793622636e-03 0.0000000000000000e+00 0.0000000000000000e+00 0.0000000000000000e+00
29 6.9217817269535606e-04 -7.1688531957287327e-04 1.1778077719224898e-03 3.0134479843726107e-04 -1.3497550171465791e-03 0.0000000000000000e+00 0.0000000000000000e+00 0.0000000000000000e+00
30 9.1576656586962117e-04 5.5249782104772785e-04 1.7337953159654266e-03 1.7482836992003252e-03 -5.3939530838838505e-04 0.0000000000000000e+00 0.0000000000000000e+00 0.0000000000000000e+00
31 9.0174833928011037e-04 7.3785013348536010e-04 1.6346018613883641e-03 1.6449157908907913e-03 -7.3417681335596007e-04 0.0000000000000000e+00 0.0000000000000000e+00 0.0000000000000000e+00
32 8.0566689674224081e-04 1.9146680987251432e-04 1.5897196358446580e-03 1.4816329490690795e-03 -6.2991864747413868e-04 0.0000000000000000e+00 0.0000000000000000e+00 0.0000000000000000e+00
33 1.1950349939551695e-03 -3.7610439141993644e-04 2.3417559405476121e-03 9.0955202251584834e-04 -2.2063250826997605e-03 0.0000000000000000e+00 0.0000000000000000e+00 0.0000000000000000e+00
34 6.8929435433094015e-04 -6.4221284183604363e-05 1.3712646701358889e-03 3.5901274396414709e-04 -1.3296808378939521e-03 0.0000000000000000e+00 0.0000000000000000e+00 0.0000000000000000e+00
35 7.5349448472586205e-04 -4.3331668408636226e-04 1.4363461177970037e-03 3.8496695131391663e-04 -1.4553274479572088e-03 0.0000000000000000e+00 0.0000000000000000e+00 0.0000000000000000e+00
36 1.5878044377654280e-03 -2.0490586945321812e-03 -2.3821056517504113e-03 -9.1523872690901125e-04 3.0344355768860175e-03 0.0000000000000000e+00 0.0000000000000000e+00 0.0000000000000000e+00
1 8.0369384686340998e-04 -1.4281911116297225e-03 -7.1924224012778672e-04 -1.4881704397295260e-03 6.0299684374999062e-04 0.0000000000000000e+00 0.0000000000000000e+00 0.0000000000000000e+00
38 9.2576809810152158e-04 -9.5489760771520586e-04 1.5697261435956413e-03 1.8470457769604852e-03 1.0112687434711688e-04 0.0000000000000000e+00 0.0000000000000000e+00 0.0000000000000000e+00
39 9.1207840294919732e-04 -1.4013079342672990e-03 1.1507369028434975e-03 1.8162480724028809e-03 1.4559197604451402e-04 0.0000000000000000e+00 0.0000000000000000e+00 0.0000000000000000e+00
40 7.4835365714984582e-04 8.8044848919350876e-04 1.2017066448199185e-03 1.1463230594160412e-03 -9.5994775592605369e-04 0.0000000000000000e+00 0.0000000000000000e+00 0.0000000000000000e+00
41 6.9379327287996239e-04 1.0070312073569619e-03 9.4353374704903980e-04 1.1347907969493736e-03 -7.9677261234656035e-04 0.0000000000000000e+00 0.0000000000000000e+00 0.0000000000000000e+00
42 6.6475363844438625e-04 1.0519254534680795e-03 8.0240847707660989e-04 1.0019087348221969e-03 -8.7242342667098640e-04 0.0000000000000000e+00 0.0000000000000000e+00 0.0000000000000000e+00
43 1.0513523159521212e-03 1.9593124472587057e-03 7.1163828834809996e-04 -1.5981897725770059e-03 -1.3629683609375080e-03 0.0000000000000000e+00 0.0000000000000000e+00 0.0000000000000000e+00
44 7.6175795374609442e-04 1.5075520810885264e-03 1.4203296916883259e-04 -1.2482826176093826e-03 -8.7125220615341214e-04 0.0000000000000000e+00 0.0000000000000000e+00 0.0000000000000000e+00
45 9.6981014436025930e-04 1.7621936365172096e-03 7.7531797136555513e-04 -1.6102833090088191e-03 -1.0775941797631818e-03 0.0000000000000000e+00 0.0000000000000000e+00 0.0000000000000000e+00
46 9.1699446476438580e-04 -1.2406269179498729e-03 1.3344492183131895e-03 1.8131498500437728e-03 -2.6224998034763433e-04 0.0000000000000000e+00 0.0000000000000000e+00 0.0000000000000000e+00
47 7.8803612499231564e-04 -6.3332042640879991e-04 1.4343140940949308e-03 1.5550860880415218e-03 -2.4629794840331576e-04 0.0000000000000000e+00 0.0000000000000000e+00 0.0000000000000000e+00
48 5.8487136823126931e-04 -6.4393255847919675e-04 9.7051611342794536e-04 1.1367875492000815e-03 -2.7237549574393315e-04 0.0000000000000000e+00 0.0000000000000000e+00 0.0000000000000000e+00
49 3.5170991321385633e-04 6.6375296555534616e-04 -2.2098284411218664e-04 -7.0288595450588968e-04 2.1989795047229484e-05 0.0000000000000000e+00 0.0000000000000000e+00 0.0000000000000000e+00
50 9.4892151312496616e-04 1.7274239640037922e-03 -7.5291075278533968e-04 -1.8831821811535886e-03 2.1847492611861650e-04 0.0000000000000000e+00 0.0000000000000000e+00 0.0000000000000000e+00
51 5.2800936951755335e-04 1.0395691778603607e-03 -1.6052591988907169e-04 -1.0521572130996045e-03 8.2531132424655239e-05 0.0000000000000000e+00 0.0000000000000000e+00 0.0000000000000000e+00
52 6.3155428994702591e-04 5.7795851395669486e-04 -1.1161165628256035e-03 4.1427909067522957e-04 1.1923546217297546e-03 0.0000000000000000e+00 0.0000000000000000e+00 0.0000000000000000e+00
53 5.9919640094445047e-04 4.1965789995994016e-04 -1.1171919149006420e-03 4.9339960501645756e-04 1.0911463462712776e-03 0.0000000000000000e+00 0.0000000000000000e+00 0.0000000000000000e+00
54 6.6821222527195816e-04 7.6190746563593512e-04 -1.0920763640467730e-03 5.6314591765031135e-04 1.2104849711764771e-03 0.0000000000000000e+00 0.0000000000000000e+00 0.0000000000000000e+00
55 8.1047049142203792e-04 5.2080159713135607e-04 1.5245879457477297e-03 1.3429844415251467e-03 9.0508368584027562e-04 0.0000000000000000e+00 0.0000000000000000e+00 0.0000000000000000e+00
56 7.7318388439242473e-04 7.6731171848876340e-04 1.3323027855451973e-03 1.1992163132248728e-03 9.7421229971077423e-04 0.0000000000000000e+00 0.0000000000000000e+00 0.0000000000000000e+00
57 6.8578934409647312e-04 8.0365206260914711e-04 1.1035131719798156e-03 1.1553080615511059e-03 7.3707196953461118e-04 0.0000000000000000e+00 0.0000000000000000e+00 0.0000000000000000e+00
58 9.8323607891728369e-04 9.2473764940065502e-04 -1.7193904967848302e-03 1.8462637090734008e-03 -6.7049282998920396e-04 0.0000000000000000e+00 0.0000000000000000e+00 0.0000000000000000e+00
59 8.4294243400580748e-04 2.0960779924596577e-04 -1.6630678754973142e-03 1.5768689193546060e-03 -5.9137563833100675e-04 0.0000000000000000e+00 0.0000000000000000e+00 0.0000000000000000e+00
60 3.5954715091637656e-04 2.2893173750936018e-04 -6.7977105950531324e-04 6.5647740858764737e-04 -2.9268228564944756e-04 0.0000000000000000e+00 0.0000000000000000e+00 0.0000000000000000e+00
61 9.2047246556552199e-04 -1.7577151639454353e-03 -5.0574640498680045e-04 1.8198693708650056e-03 2.6428969819371835e-04 0.0000000000000000e+00 0.0000000000000000e+00 0.0000000000000000e+00
62 5.3104032431683921e-04 -1.0543144085195149e-03 1.0477285115205054e-04 -8.9592218308909071e-04 -5.6788956433704305e-04 0.0000000000000000e+00 0.0000000000000000e+00 0.0000000000000000e+00
63 4.1305087594059039e-04 -8.2188343528342219e-04 6.7096149883285155e-05 -6.3424955807096903e-04 -5.2787124896593192e-04 0.0000000000000000e+00 0.0000000000000000e+00 0.0000000000000000e+00
64 1.1656009930505304e-03 -2.2002929601645581e-03 7.0752490226807239e-04 -1.8536132266469196e-03 -1.4086388433821641e-03 0.0000000000000000e+00 0.0000000000000000e+00 0.0000000000000000e+00
65 1.2365938306520279e-03 -3.6184781939317635e-04 -2.4276255034075891e-03 -2.4445125128268524e-03 -3.4797412726834709e-04 0.0000000000000000e+00 0.0000000000000000e+00 0.0000000000000000e+00
66 8.2732827958671804e-04 1.0879711415219304e-04 -1.6419014629864006e-03 -1.6028786623829843e-03 -4.0375943643854129e-04 0.0000000000000000e+00 0.0000000000000000e+00 0.0000000000000000e+00
67 9.3788880327444393e-04 -3.5966889533540629e-04 -1.8292506570710314e-03 -1.7921168250191752e-03 -5.4625073889531383e-04 0.0000000000000000e+00 0.0000000000000000e+00 0.0000000000000000e+00
68 1.1003155190620060e-03 2.1007254633644221e-04 2.1782176736300403e-03 -1.8944587581845088e-03 1.1119730300531642e-03 0.0000000000000000e+00 0.0000000000000000e+00 0.0000000000000000e+00
69 1.2065539622869038e-03 2.0261526746335796e-06 2.3965845337510345e-03 -1.8687659030822376e-03 1.5198831149737205e-03 0.0000000000000000e+00 0.0000000000000000e+00 0.0000000000000000e+00
70 8.6300380313597818e-04 -3.2709633501952783e-04 1.6842309032968983e-03 -1.4704425119793569e-03 9.0008535355473563e-04 0.0000000000000000e+00 0.0000000000000000e+00 0.0000000000000000e+00
71 4.1644789523059746e-04 -8.2871617090801654e-04 6.7280472493708702e-05 -5.5227332765324226e-04 -6.2216993995018865e-04 0.0000000000000000e+00 0.0000000000000000e+00 0.0000000000000000e+00
72 6.2768800554173553e-04 -1.2268648459635234e-03 2.4546739890637785e-04 -8.9794349881264896e-04 -8.7553583580501492e-04 0.0000000000000000e+00 0.0000000000000000e+00 0.0000000000000000e+00
73 1.0160259678858538e-03 1.8210101276594406e-03 -8.6325375230463235e-04 -1.9738726998207562e-03 4.7385080305607368e-04 0.0000000000000000e+00 0.0000000000000000e+00 0.0000000000000000e+00
74 1.2771861972535742e-03 1.8755619440078597e-03 -1.7033623520881812e-03 -2.5246181027594908e-03 3.5982893880045130e-04 0.0000000000000000e+00 0.0000000000000000e+00 0.0000000000000000e+00
75 9.7933562839174816e-04 1.4377382077146192e-03 -1.3128829262705002e-03 -1.8733567635050429e-03 5.6293010894753503e-04 0.0000000000000000e+00 0.0000000000000000e+00 0.0000000000000000e+00
76 7.7089414529533744e-04 -1.4903112291504716e-03 3.6134180883097322e-04 -1.2651834189853545e-03 8.7839835965080812e-04 0.0000000000000000e+00 0.0000000000000000e+00 0.0000000000000000e+00
77 6.0323851431299895e-04 -1.0926942669346657e-03 5.0106379310342337e-04 -9.5789017795937063e-04 7.3177907815280086e-04 0.0000000000000000e+00 0.0000000000000000e+00 0.0000000000000000e+00
78 7.5278476093253860e-04 -1.4570210891002339e-03 3.4767998778992444e-04 -1.1169817547472423e-03 1.0073467809827911e-03 0.0000000000000000e+00 0.0000000000000000e+00 0.0000000000000000e+00
79 1.2000114304407609e-03 1.1953575510355414e-03 -2.0614546334832761e-03 2.0298982508773111e-03 1.2730501381099418e-03 0.0000000000000000e+00 0.0000000000000000e+00 0.0000000000000000e+00
80 7.4835365714984571e-04 8.8044848919350876e-04 -1.2017066448199187e-03 1.1463230594160416e-03 9.5994775592605358e-04 0.0000000000000000e+00 0.0000000000000000e+00 0.0000000000000000e+00
81 6.4270838358369722e-04 4.8392572390847598e-04 -1.1850410539479394e-03 9.8627529364538774e-04 8.2259446202548520e-04 0.0000000000000000e+00 0.0000000000000000e+00 0.0000000000000000e+00
82 1.1922162249591156e-03 -2.0051966012144600e-03 1.2578095358717898e-03 9.2252828361734515e-04 -2.1946373445548974e-03 0.0000000000000000e+00 0.0000000000000000e+00 0.0000000000000000e+00
83 1.0012737174907077e-03 -1.3969821742203408e-03 1.4138117988625944e-03 1.0000316466971884e-03 -1.7323440280460056e-03 0.0000000000000000e+00 0.0000000000000000e+00 0.0000000000000000e+00
84 7.7186697561411831e-04 -9.8406827143824715e-04 1.1782634667341330e-03 6.1552090012615009e-04 -1.4141363368760671e-03 0.0000000000000000e+00 0.0000000000000000e+00 0.0000000000000000e+00
85 1.0480280779460245e-03 1.7326220196468417e-03 1.1452976976066293e-03 1.9860917690783519e-03 -6.6354668167636791e-04 0.0000000000000000e+00 0.0000000000000000e+00 0.0000000000000000e+00
86 1.2704244178574592e-03 2.3843768945884295e-03 7.9641591827438792e-04 2.4731468439785440e-03 -5.6876899370982893e-04 0.0000000000000000e+00 0.0000000000000000e+00 0.0000000000000000e+00
87 1.0056554107146284e-03 1.9433119494427331e-03 4.4909906173222117e-04 1.8826977322453952e-03 -7.0196209220454867e-04 0.0000000000000000e+00 0.0000000000000000e+00 0.0000000000000000e+00
88 1.1400813888658740e-03 8.5300618968923894e-04 2.0965558021120234e-03 2.2740090567632703e-03 -1.1323562474710554e-04 0.0000000000000000e+00 0.0000000000000000e+00 0.0000000000000000e+00
89 6.3665014499336313e-04 7.7551846575733287e-04 1.0025361920202190e-03 1.2720113879357104e-03 2.9253135589075655e-05 0.0000000000000000e+00 0.0000000000000000e+00 0.0000000000000000e+00
90 9.4112209668012893e-04 1.2241606398380716e-03 1.4119049387135896e-03 1.8731762624027016e-03 -1.6401648862281605e-04 0.0000000000000000e+00 0.0000000000000000e+00 0.0000000000000000e+00
91 4.9496613503134776e-04 -9.8252747928528894e-04 -9.7207001458038706e-05 -9.4544271323167273e-04 -2.8947415043278311e-04 0.0000000000000000e+00 0.0000000000000000e+00 0.0000000000000000e+00
92 5.5008487233452813e-04 -1.0906810189916030e-03 -1.1665349421012017e-04 -1.0850345820122760e-03 -1.7358307088516801e-04 0.0000000000000000e+00 0.0000000000000000e+00 0.0000000000000000e+00
93 7.5363301117238113e-04 -1.4472523802735212e-03 -3.8753989151882594e-04 -1.4590285218889869e-03 -3.7303052160426043e-04 0.0000000000000000e+00 0.0000000000000000e+00 0.0000000000000000e+00
94 9.4095907147770028e-04 1.1027166880925423e-03 1.5117223327805530e-03 -1.0674085189577521e-03 -1.5469575709345065e-03 0.0000000000000000e+00 0.0000000000000000e+00 0.0000000000000000e+00
95 1.2939835349479215e-03 1.8821630712754097e-03 1.7405475398880399e-03 -1.1704409884946609e-03 -2.3039736856402364e-03 0.0000000000000000e+00 0.0000000000000000e+00 0.0000000000000000e+00
96 5.8867478343842066e-04 9.2776052592391924e-04 7.1650089176289965e-04 -6.5347446908864469e-04 -9.7840074438921014e-04 0.0000000000000000e+00 0.0000000000000000e+00 0.0000000000000000e+00
97 9.0583473503658498e-04 -1.9802064822348135e-04 1.7874165914808448e-03 1.5926937961959515e-03 -8.5990630317070763e-04 0.0000000000000000e+00 0.0000000000000000e+00 0.0000000000000000e+00
98 6.1503476312880264e-04 -2.1377564737885078e-04 1.2052894863269577e-03 1.1380578356570000e-03 -4.6468446248556171e-04 0.0000000000000000e+00 0.0000000000000000e+00 0.0000000000000000e+00
99 1.0405372926671731e-03 -1.4258458366566939e-04 -2.0613161664709209e-03 -7.8824811975716975e-04 1.9231258601431910e-03 0.0000000000000000e+00 0.0000000000000000e+00 0.0000000000000000e+00
100 1.1337047719722042e-03 2.6452692278291508e-04 -2.2373436292065937e-03 -1.1227054696762893e-03 1.9656654343738564e-03 0.0000000000000000e+00 0.0000000000000000e+00 0.0000000000000000e+00
101 9.8975473778909200e-04 -3.8226758148753352e-04 -1.9295520408999902e-03 -9.7116193416420086e-04 1.7218614366300642e-03 0.0000000000000000e+00 0.0000000000000000e+00 0.0000000000000000e+00
102 1.0497630391782054e-03 1.9912928496967708e-03 6.1830582465766310e-04 6.0929072712616209e-04 2.0061083583127744e-03 0.0000000000000000e+00 0.0000000000000000e+00 0.0000000000000000e+00
103 1.0803491242620214e-03 1.9918014798848967e-03 7.9226160944999063e-04 3.5808828533847735e-04 2.1280554344623192e-03 0.0000000000000000e+00 0.0000000000000000e+00 0.0000000000000000e+00
104 1.1552967998069337e-03 2.2897983538511216e-03 9.5799626687358876e-05 4.0161918253092232e-04 2.2722270311908888e-03 0.0000000000000000e+00 0.0000000000000000e+00 0.0000000000000000e+00
105 8.0325237614813083e-04 1.4372055229318415e-03 6.9447919994590935e-04 -9.8065035426742595e-04 -1.2707711388759383e-03 0.0000000000000000e+00 0.0000000000000000e+00 0.0000000000000000e+00
106 5.4570813690822521e-04 8.0307290306328338e-04 7.3218011569467121e-04 -6.8819751624048849e-04 -8.4626758671518972e-04 0.0000000000000000e+00 0.0000000000000000e+00 0.0000000000000000e+00
107 1.0019360468213378e-03 -1.9170923188978894e-03 5.3973248817660842e-04 1.1229107319309769e-03 1.6564823710734696e-03 0.0000000000000000e+00 0.0000000000000000e+00 0.0000000000000000e+00
108 9.1739959994316714e-04 -1.7674367934596268e-03 4.5607315735643136e-04 7.9900692468426590e-04 1.6489693239825291e-03 0.0000000000000000e+00 0.0000000000000000e+00 0.0000000000000000e+00
109 7.9164686481931665e-04 -1.3722079440591979e-03 7.7172562001890429e-04 7.6255987651446138e-04 1.3859066426923779e-03 0.0000000000000000e+00 0.0000000000000000e+00 0.0000000000000000e+00
110 9.6554934391141411e-04 -1.3647802755435319e-03 1.3471931151324611e-03 1.7568881359199837e-03 7.9647311485395861e-04 0.0000000000000000e+00 0.0000000000000000e+00 0.0000000000000000e+00
111 7.8365455262869514e-04 -1.4016660176141454e-03 6.8364417034134299e-04 1.4247796928934884e-03 6.4905514551241033e-04 0.0000000000000000e+00 0.0000000000000000e+00 0.0000000000000000e+00
112 7.0484367190747890e-04 -1.1598673964529679e-03 7.9005024046775859e-04 1.2177764606044095e-03 7.0750939086745260e-04 0.0000000000000000e+00 0.0000000000000000e+00 0.0000000000000000e+00
113 1.2704244179011150e-03 2.3843768946748716e-03 -7.9641591828450353e-04 2.4731468440410843e-03 5.6876899382717657e-04 0.0000000000000000e+00 0.0000000000000000e+00 0.0000000000000000e+00
114 1.0480280778794782e-03 1.7326220195574376e-03 -1.1452976975084251e-03 1.9860917689228643e-03 6.6354668172190993e-04 0.0000000000000000e+00 0.0000000000000000e+00 0.0000000000000000e+00
115 1.0768203382791859e-03 1.6115512181575484e-03 -1.3992750843027976e-03 2.1060507671782735e-03 4.3932139734906072e-04 0.0000000000000000e+00 0.0000000000000000e+00 0.0000000000000000e+00
116 8.3077632727152203e-04 5.4345973357348499e-04 1.5594992881209841e-03 -1.5111059177817117e-03 6.8694303285284140e-04 0.0000000000000000e+00 0.0000000000000000e+00 0.0000000000000000e+00
117 9.6835810787177109e-04 1.1648867143898027e-03 1.5302056922372781e-03 -1.7776158481251016e-03 7.6291949482441552e-04 0.0000000000000000e+00 0.0000000000000000e+00 0.0000000000000000e+00
118 5.4120234130273679e-04 5.5929458019636979e-04 9.2133306709648872e-04 -9.5073615200845572e-04 5.1604630390726484e-04 0.0000000000000000e+00 0.0000000000000000e+00 0.0000000000000000e+00
119 9.4095907147770017e-04 1.1027166880925425e-03 -1.5117223327805532e-03 -1.0674085189577524e-03 1.5469575709345065e-03 0.0000000000000000e+00 0.0000000000000000e+00 0.0000000000000000e+00
120 1.1790102598362873e-03 1.3207041983643272e-03 -1.9289706738301897e-03 -1.6162538342650516e-03 1.7124705472202817e-03 0.0000000000000000e+00 0.0000000000000000e+00 0.0000000000000000e+00
121 1.2280661330525621e-03 7.8451085407944745e-04 -2.3074299783009122e-03 -1.4747412721663588e-03 1.9592175482160889e-03 0.0000000000000000e+00 0.0000000000000000e+00 0.0000000000000000e+00
122 7.9626452226829012e-04 1.1595387896245312e-03 -1.0774876105985054e-03 1.2673429751374622e-03 -9.6211705418427595e-04 0.0000000000000000e+00 0.0000000000000000e+00 0.0000000000000000e+00
123 8.4740792918864877e-04 1.4666465461760673e-03 -8.2688989199757013e-04 1.2606458952393730e-03 -1.1304898688099371e-03 0.0000000000000000e+00 0.0000000000000000e+00 0.0000000000000000e+00
124 8.3765194488546948e-04 1.4982105264615840e-03 -7.2568941771748773e-04 1.3636932748229589e-03 -9.7052246103990453e-04 0.0000000000000000e+00 0.0000000000000000e+00 0.0000000000000000e+00
125 9.1207840295775883e-04 -1.4013079342796563e-03 -1.1507369028552821e-03 1.8162480724199983e-03 -1.4559197604460417e-04 0.0000000000000000e+00 0.0000000000000000e+00 0.0000000000000000e+00
126 5.7837580876945235e-04 -7.9848702061041687e-04 -8.3102204437344703e-04 1.1555358245587050e-03 2.8248737192988790e-05 0.0000000000000000e+00 0.0000000000000000e+00 0.0000000000000000e+00
127 7.4632182380422035e-04 2.8697114759559532e-04 -1.4573637355138579e-03 1.3117120515963043e-03 -7.0928082770930719e-04 0.0000000000000000e+00 0.0000000000000000e+00 0.0000000000000000e+00
128 5.7208936133978548e-04 1.0772419142724816e-03 -3.6231357621443816e-04 -1.1423721831436485e-03 -5.2622392509384362e-05 0.0000000000000000e+00 0.0000000000000000e+00 0.0000000000000000e+00
129 2.9881473824627179e-04 5.9425048341080406e-04 1.1359534509928083e-06 -5.9732076081132955e-04 -1.5535940001705376e-05 0.0000000000000000e+00 0.0000000000000000e+00 0.0000000000000000e+00
130 5.9947207623761874e-04 1.1881950113374056e-03 -1.1273788790412162e-04 -1.1934849974673527e-03 -1.0534263731701213e-04 0.0000000000000000e+00 0.0000000000000000e+00 0.0000000000000000e+00
131 5.8550941994231498e-04 7.8089886506927471e-04 8.6532480592751407e-04 8.2170321801890481e-04 -8.3330185430751432e-04 0.0000000000000000e+00 0.0000000000000000e+00 0.0000000000000000e+00
132 5.7705992322151355e-04 1.0185814663671072e-03 5.3234491593814458e-04 -1.0833448295637725e-03 -3.9569150723686806e-04 0.0000000000000000e+00 0.0000000000000000e+00 0.0000000000000000e+00
133 9.7933562839174837e-04 1.4377382077146190e-03 1.3128829262705000e-03 -1.8733567635050431e-03 -5.6293010894753481e-04 0.0000000000000000e+00 0.0000000000000000e+00 0.0000000000000000e+00
134 5.3554143548441800e-04 8.5697605428015650e-04 6.3632935982977376e-04 -9.7810004382886001e-04 -4.3460251621502317e-04 0.0000000000000000e+00 0.0000000000000000e+00 0.0000000000000000e+00
135 9.5621433599381517e-04 -9.9303364828217744e-04 1.6210323316405166e-03 -9.4469289747071983e-04 1.6599942800481122e-03 0.0000000000000000e+00 0.0000000000000000e+00 0.0000000000000000e+00
136 1.1705385873288891e-03 -1.3288235088409843e-03 1.9083518876253098e-03 -1.4606967819124519e-03 1.8243176330381328e-03 0.0000000000000000e+00 0.0000000000000000e+00 0.0000000000000000e+00
137 1.1053163468551183e-03 -6.3350573035853312e-04 2.0991188013688255e-03 -1.2463192643412046e-03 1.8224644721008220e-03 0.0000000000000000e+00 0.0000000000000000e+00 0.0000000000000000e+00
138 5.2239749388243871e-04 -4.2108052140016875e-04 9.5242644155135552e-04 6.7894907250522099e-04 -7.9314890455224011e-04 0.0000000000000000e+00 0.0000000000000000e+00 0.0000000000000000e+00
139 8.4619422938997054e-04 -9.3134977027492212e-04 1.3996933888290254e-03 9.6917509576091587e-04 -1.3854992345751647e-03 0.0000000000000000e+00 0.0000000000000000e+00 0.0000000000000000e+00
140 6.6186593542158978e-04 -7.9784679246742757e-04 1.0485786476524934e-03 8.7234866662312639e-04 -9.9419048867176564e-04 0.0000000000000000e+00 0.0000000000000000e+00 0.0000000000000000e+00
141 9.5272619745870053e-04 -1.5591775439486356e-03 1.0661859939952044e-03 -1.5829683843854195e-03 -1.0576347214712406e-03 0.0000000000000000e+00 0.0000000000000000e+00 0.0000000000000000e+00
142 1.1371699172738128e-03 -1.7535203875311261e-03 1.4169878132618313e-03 -1.7198327797641900e-03 -1.4838938281292635e-03 0.0000000000000000e+00 0.0000000000000000e+00 0.0000000000000000e+00
143 8.1918173009559172e-04 4.1486361716418403e-04 -1.5748970207963362e-03 -9.9618763148175138e-04 -1.2987539200585950e-03 0.0000000000000000e+00 0.0000000000000000e+00 0.0000000000000000e+00
144 1.0223019853285061e-03 3.3433432367866075e-05 -2.0302360700722387e-03 -1.0995490386676850e-03 -1.7206670155239172e-03 0.0000000000000000e+00 0.0000000000000000e+00 0.0000000000000000e+00
145 1.1681186559562825e-03 -5.9669569690971075e-05 -2.3196413497958588e-03 -1.5291635230706274e-03 -1.7611650254092987e-03 0.0000000000000000e+00 0.0000000000000000e+00 0.0000000000000000e+00
146 7.0649413968276969e-04 1.2583031530658821e-03 6.2392365937132574e-04 1.1315653045243946e-03 -8.4461146872417384e-04 0.0000000000000000e+00 0.0000000000000000e+00 0.0000000000000000e+00
147 5.9592864004102779e-04 1.0384143782353214e-03 5.7301289674724148e-04 1.0228275029906522e-03 -6.1030687415602981e-04 0.0000000000000000e+00 0.0000000000000000e+00 0.0000000000000000e+00
148 9.7461631459578289e-04 1.7666107570604086e-03 7.9131703384673969e-04 -7.7393094435069328e-04 -1.7866220649174608e-03 0.0000000000000000e+00 0.0000000000000000e+00 0.0000000000000000e+00
149 9.0936865989725741e-04 1.6573696166261283e-03 7.1821809139708138e-04 -9.2663255265807223e-04 -1.5628518005906358e-03 0.0000000000000000e+00 0.0000000000000000e+00 0.0000000000000000e+00
150 1.3024016326568051e-03 -3.7019622257811001e-04 -2.5565611957281652e-03 -2.5728931130794843e-03 3.7775001009103971e-04 0.0000000000000000e+00 0.0000000000000000e+00 0.0000000000000000e+00
151 4.9175334079531465e-04 -2.8702916585883069e-04 -9.3457612867386237e-04 -9.8216938797639750e-04 4.1524630692276871e-05 0.0000000000000000e+00 0.0000000000000000e+00 0.0000000000000000e+00
152 7.6107572316246475e-04 -6.6309657206101689e-04 -1.3616507092915843e-03 -1.5121500809421296e-03 1.6089017801716125e-04 0.0000000000000000e+00 0.0000000000000000e+00 0.0000000000000000e+00
153 1.0019360468213378e-03 -1.9170923188978894e-03 -5.3973248817660831e-04 1.1229107319309767e-03 -1.6564823710734700e-03 0.0000000000000000e+00 0.0000000000000000e+00 0.0000000000000000e+00
154 7.9164686481931665e-04 -1.3722079440591979e-03 -7.7172562001890440e-04 7.6255987651446127e-04 -1.3859066426923784e-03 0.0000000000000000e+00 0.0000000000000000e+00 0.0000000000000000e+00
155 5.8827992076901923e-04 -9.9425109557019198e-04 -6.1941971681575916e-04 6.7217399988056222e-04 -9.6470262074597861e-04 0.0000000000000000e+00 0.0000000000000000e+00 0.0000000000000000e+00
156 8.3638492391756216e-04 -7.8918460597170962e-04 1.4616848201747393e-03 1.5605291460850407e-03 5.9855458733129628e-04 0.0000000000000000e+00 0.0000000000000000e+00 0.0000000000000000e+00
37 8.7608330037106130e-04 -1.1109229181323255e-03 1.3408890407554058e-03 1.7222971956144914e-03 3.1207811781630671e-04 0.0000000000000000e+00 0.0000000000000000e+00 0.0000000000000000e+00
158 7.7373544728816311e-04 -1.3794833707550757e-03 -6.8270354715989747e-04 3.8737127986656075e-05 1.5455141358361733e-03 0.0000000000000000e+00 0.0000000000000000e+00 0.0000000000000000e+00
159 8.6316395213075251e-04 -1.6521821113577105e-03 -4.6171364051439563e-04 2.3413820299832868e-04 1.7086107675113142e-03 0.0000000000000000e+00 0.0000000000000000e+00 0.0000000000000000e+00
160 9.0096294485188103e-04 -1.4915609432059837e-03 -9.9390624457171284e-04 2.4667644158086045e-04 1.7825890559940538e-03 0.0000000000000000e+00 0.0000000000000000e+00 0.0000000000000000e+00
161 1.1813024492596561e-03 -2.2281731217655022e-03 7.2615287525637344e-04 1.9822670531956044e-03 -1.2793923509069874e-03 0.0000000000000000e+00 0.0000000000000000e+00 0.0000000000000000e+00
162 7.9318484833448279e-04 -1.4086179720358841e-03 7.1122666122075873e-04 1.2065309962328017e-03 -1.0275058741004851e-03 0.0000000000000000e+00 0.0000000000000000e+00 0.0000000000000000e+00
163 6.7080162318629679e-04 -1.3056865060783163e-03 2.8457482202972798e-04 1.0243222399581157e-03 -8.6442999263432771e-04 0.0000000000000000e+00 0.0000000000000000e+00 0.0000000000000000e+00
164 7.1611634444936512e-04 -7.0206952069065025e-04 1.2398771927133508e-03 -1.3521180205655003e-03 4.6857448608936269e-04 0.0000000000000000e+00 0.0000000000000000e+00 0.0000000000000000e+00
165 1.2372216288219573e-03 -1.8090793185045488e-03 1.6547898443456379e-03 -2.2890948050387065e-03 9.3060739485070700e-04 0.0000000000000000e+00 0.0000000000000000e+00 0.0000000000000000e+00
166 7.1887162374811636e-04 -9.2479619821663470e-04 1.0922520913226126e-03 -1.3882299350148344e-03 3.6876218805863655e-04 0.0000000000000000e+00 0.0000000000000000e+00 0.0000000000000000e+00
167 1.3233891381073978e-03 -2.4416605087774711e-03 -9.4332730402406036e-04 -2.4568275338268269e-03 -9.7504754531176974e-04 0.0000000000000000e+00 0.0000000000000000e+00 0.0000000000000000e+00
168 1.1324883190491804e-03 -1.8733225558063846e-03 -1.2453844126808268e-03 -2.1899509049071323e-03 -5.6413700080653478e-04 0.0000000000000000e+00 0.0000000000000000e+00 0.0000000000000000e+00
169 1.2372216288219569e-03 -1.8090793185045490e-03 -1.6547898443456377e-03 -2.2890948050387069e-03 -9.3060739485070689e-04 0.0000000000000000e+00 0.0000000000000000e+00 0.0000000000000000e+00
170 1.0977782217480589e-03 9.0484789549387975e-04 -1.9858217518725321e-03 7.3606505265349348e-04 -2.0647290172209785e-03 0.0000000000000000e+00 0.0000000000000000e+00 0.0000000000000000e+00
171 8.0970132960279495e-04 8.0593246473479468e-04 -1.3944440618154127e-03 3.1920117391091114e-04 -1.5859536479498225e-03 0.0000000000000000e+00 0.0000000000000000e+00 0.0000000000000000e+00
157 7.2084789587643873e-04 -7.0313488051435577e-04 1.2496646807065664e-03 1.2767649464893716e-03 6.6714028460467716e-04 0.0000000000000000e+00 0.0000000000000000e+00 0.0000000000000000e+00
173 8.8190205228695672e-04 -7.7107574582555916e-04 -1.5732731677743860e-03 -3.5002603430704627e-04 -1.7269142905374957e-03 0.0000000000000000e+00 0.0000000000000000e+00 0.0000000000000000e+00
174 1.0828104687146123e-03 -9.3028103615520354e-04 -1.9356331853347020e-03 -1.4241741754402105e-04 -2.1582792502119873e-03 0.0000000000000000e+00 0.0000000000000000e+00 0.0000000000000000e+00
175 1.2325208451037391e-03 -1.7353155725584545e-03 -1.7192377516082925e-03 -3.6362533515979208e-04 -2.4346022876194579e-03 0.0000000000000000e+00 0.0000000000000000e+00 0.0000000000000000e+00
176 8.8190205122559478e-04 -7.7107574498509095e-04 1.5732731658344920e-03 -3.5002603372462571e-04 1.7269142884967334e-03 0.0000000000000000e+00 0.0000000000000000e+00 0.0000000000000000e+00
177 8.8855720637775820e-04 -2.2054517273427030e-04 1.7503078651734511e-03 -4.3909189050120404e-04 1.7203963848883490e-03 0.0000000000000000e+00 0.0000000000000000e+00 0.0000000000000000e+00
172 7.0397482489576661e-04 8.9813966173500691e-04 -1.0763894980451358e-03 3.8559520713311597e-04 -1.3526906548342644e-03 0.0000000000000000e+00 0.0000000000000000e+00 0.0000000000000000e+00
179 1.1734590598470669e-03 -8.0867062249412834e-04 2.1853253694931974e-03 1.9464842963376277e-03 -1.3045606637570124e-03 0.0000000000000000e+00 0.0000000000000000e+00 0.0000000000000000e+00
180 8.4745213602823442e-04 -4.1476570677914789e-05 1.6850846614779936e-03 1.3883592402610665e-03 -9.6890711371961735e-04 0.0000000000000000e+00 0.0000000000000000e+00 0.0000000000000000e+00
181 1.0048768741647005e-03 1.8096960875493783e-03 8.4090049710096879e-04 1.9286046865833099e-03 5.5672409256270954e-04 0.0000000000000000e+00 0.0000000000000000e+00 0.0000000000000000e+00
182 1.1936737131197138e-03 2.3619104027722765e-03 1.4660206226739612e-04 2.2831347931598946e-03 6.8642277995075893e-04 0.0000000000000000e+00 0.0000000000000000e+00 0.0000000000000000e+00
183 6.1342721716108398e-04 1.1901940712173340e-03 2.7478201328390723e-04 1.2026836943858444e-03 2.3778917439434307e-04 0.0000000000000000e+00 0.0000000000000000e+00 0.0000000000000000e+00
184 1.2561736867804554e-03 -1.1376823647516808e-03 -2.2161354449852567e-03 1.7334234329867745e-03 -1.8132245263274922e-03 0.0000000000000000e+00 0.0000000000000000e+00 0.0000000000000000e+00
185 1.0611485675991210e-03 -1.0124410485218387e-03 -1.8499214306713211e-03 1.2157836366165275e-03 -1.7357573433827442e-03 0.0000000000000000e+00 0.0000000000000000e+00 0.0000000000000000e+00
186 1.1855969096628987e-03 -4.5040047890927779e-04 -2.3086388756221746e-03 1.4792220385955615e-03 -1.8489183434352600e-03 0.0000000000000000e+00 0.0000000000000000e+00 0.0000000000000000e+00
187 1.1057532456959366e-03 4.2186171851309732e-04 -2.1549715586657719e-03 -2.3210546260584011e-04 2.1961667424457822e-03 0.0000000000000000e+00 0.0000000000000000e+00 0.0000000000000000e+00
188 1.0155848135522771e-03 6.7047174295582583e-04 -1.9046820858405848e-03 5.0176801710913838e-05 2.0275564024768771e-03 0.0000000000000000e+00 0.0000000000000000e+00 0.0000000000000000e+00
189 7.9215333198580742e-04 1.3322419973054347e-03 -8.3941778888972814e-04 1.0496704269913856e-03 -1.1848846099039028e-03 0.0000000000000000e+00 0.0000000000000000e+00 0.0000000000000000e+00
190 7.8310416589526320e-04 1.5017752409557908e-03 -4.1038210297275477e-04 1.0712404700328022e-03 -1.1407647326466220e-03 0.0000000000000000e+00 0.0000000000000000e+00 0.0000000000000000e+00
191 9.7773553000787350e-04 9.5549971354261622e-04 -1.6926915255255559e-03 -1.9989193841781554e-04 1.9426777764804169e-03 0.0000000000000000e+00 0.0000000000000000e+00 0.0000000000000000e+00
192 9.5690773757541665e-04 1.6946871481291577e-03 -8.6473099773890026e-04 1.8941789148661931e-03 -2.5598177394826113e-04 0.0000000000000000e+00 0.0000000000000000e+00 0.0000000000000000e+00
193 6.1342721710419762e-04 1.1901940711100158e-03 -2.7478201324443132e-04 1.2026836942762799e-03 -2.3778917436346417e-04 0.0000000000000000e+00 0.0000000000000000e+00 0.0000000000000000e+00
194 5.6716944301144639e-04 1.1090141486706871e-03 -2.1533118420212393e-04 1.1288582799278406e-03 -1.0337228944163953e-04 0.0000000000000000e+00 0.0000000000000000e+00 0.0000000000000000e+00
195 1.1291460950946658e-03 -4.7728623534617879e-04 -2.1917416047674320e-03 2.2426998334759366e-03 -2.3210725735329135e-04 0.0000000000000000e+00 0.0000000000000000e+00 0.0000000000000000e+00
196 9.2576809810773417e-04 -9.5489760772310157e-04 -1.5697261436052059e-03 1.8470457769729058e-03 -1.0112687434709323e-04 0.0000000000000000e+00 0.0000000000000000e+00 0.0000000000000000e+00
197 4.6193465294305590e-04 -4.0199959787783757e-04 -8.2839784047674932e-04 9.1337929399037379e-04 -1.3530017071989439e-04 0.0000000000000000e+00 0.0000000000000000e+00 0.0000000000000000e+00
198 7.2541728083361462e-04 3.8746565273116147e-04 1.3890534447902445e-03 1.4298291642834073e-03 2.3961510250791244e-04 0.0000000000000000e+00 0.0000000000000000e+00 0.0000000000000000e+00
199 5.6209317931148477e-04 2.7378668448897080e-04 1.0860628722276088e-03 1.1218486390112989e-03 5.8444927869588466e-05 0.0000000000000000e+00 0.0000000000000000e+00 0.0000000000000000e+00
200 5.7215340775774526e-04 5.6263635256004077e-05 1.1393641758441952e-03 1.1370631952356677e-03 1.1919890954285505e-04 0.0000000000000000e+00 0.0000000000000000e+00 0.0000000000000000e+00
201 9.6345628284125076e-04 -4.8363684705944468e-04 1.8532608770795850e-03 1.4212916725642649e-04 1.9190755791009398e-03 0.0000000000000000e+00 0.0000000000000000e+00 0.0000000000000000e+00
202 1.0444136410943880e-03 -1.8388733047360070e-04 2.0657990117533115e-03 4.3326112294042726e-04 2.0405973509440949e-03 0.0000000000000000e+00 0.0000000000000000e+00 0.0000000000000000e+00
203 9.3763112139783533e-04 -7.6807623418221249e-04 1.6985738662720865e-03 3.3541184086437165e-04 1.8426658936037702e-03 0.0000000000000000e+00 0.0000000000000000e+00 0.0000000000000000e+00
204 7.9720344995665485e-04 1.5724919427859527e-03 -1.9968605118814617e-04 -6.5563272154203094e-04 -1.4517793133993293e-03 0.0000000000000000e+00 0.0000000000000000e+00 0.0000000000000000e+00
205 7.5046823525337539e-04 1.4802424991853991e-03 2.0346387498063639e-04 -5.2977539527760103e-04 -1.4026596492606922e-03 0.0000000000000000e+00 0.0000000000000000e+00 0.0000000000000000e+00
178 6.4610591153213234e-04 -3.0438676288872471e-04 1.2504388084152538e-03 -1.7760070840270562e-04 1.2788146496288248e-03 0.0000000000000000e+00 0.0000000000000000e+00 0.0000000000000000e+00
207 1.1371699172738124e-03 -1.7535203875311263e-03 -1.4169878132618309e-03 -1.7198327797641900e-03 1.4838938281292633e-03 0.0000000000000000e+00 0.0000000000000000e+00 0.0000000000000000e+00
208 7.4357126492624831e-04 -1.3460045075845296e-03 -6.1680126489281953e-04 -1.0573249972584615e-03 1.0435373944445801e-03 0.0000000000000000e+00 0.0000000000000000e+00 0.0000000000000000e+00
209 1.0368579991287959e-03 -1.6830735555558361e-03 -1.1914413543798064e-03 -1.3275059197562433e-03 1.5888123796033160e-03 0.0000000000000000e+00 0.0000000000000000e+00 0.0000000000000000e+00
210 8.9652248937491903e-04 -4.9673534757427892e-04 1.7114222229491242e-03 -1.3689835732110447e-03 -1.1549563134084970e-03 0.0000000000000000e+00 0.0000000000000000e+00 0.0000000000000000e+00
211 1.2291630513467172e-03 -1.3331978525351683e-03 2.0355786805978282e-03 -2.0046516824443277e-03 -1.4177511964282023e-03 0.0000000000000000e+00 0.0000000000000000e+00 0.0000000000000000e+00
212 6.6645342100894213e-04 -6.9920085770053589e-04 1.1259894806872816e-03 -9.8772862736470012e-04 -8.9367203924755700e-04 0.0000000000000000e+00 0.0000000000000000e+00 0.0000000000000000e+00
213 8.5497417301919954e-04 -1.0154655910985168e-03 1.3635802355960907e-03 1.3256148213575095e-03 1.0773090417396708e-03 0.0000000000000000e+00 0.0000000000000000e+00 0.0000000000000000e+00
214 5.4346457161142119e-04 -5.0287301090846210e-04 9.5915327584468360e-04 9.0414581419097416e-04 6.0194562646558557e-04 0.0000000000000000e+00 0.0000000000000000e+00 0.0000000000000000e+00
215 7.8784755302178380e-04 -1.0413820012754808e-03 1.1726715348147831e-03 1.3347398032546465e-03 8.3418056992489473e-04 0.0000000000000000e+00 0.0000000000000000e+00 0.0000000000000000e+00
216 5.7837580876945235e-04 -7.9848702061041698e-04 8.3102204437344703e-04 1.1555358245587367e-03 -2.8248737191691959e-05 0.0000000000000000e+00 0.0000000000000000e+00 0.0000000000000000e+00
217 5.6172303003596360e-04 -5.8185137453266441e-04 9.5609187083182490e-04 1.1205134062834510e-03 -6.9368301098115561e-05 0.0000000000000000e+00 0.0000000000000000e+00 0.0000000000000000e+00
218 3.9030741397288034e-04 -7.7710090883802531e-04 5.9792848307813873e-05 -2.3551582502546599e-04 -7.4332062775418002e-04 0.0000000000000000e+00 0.0000000000000000e+00 0.0000000000000000e+00
219 4.8077943100247923e-04 -9.5571104287889752e-04 8.6421570285963152e-05 -1.6333588641479692e-04 -9.4637669071389674e-04 0.0000000000000000e+00 0.0000000000000000e+00 0.0000000000000000e+00
220 8.0281512852169623e-04 -1.5483431865604494e-03 3.9226213774899656e-04 -3.7749081328175240e-04 -1.5589334947237769e-03 0.0000000000000000e+00 0.0000000000000000e+00 0.0000000000000000e+00
221 7.0563780322581437e-04 1.3394671128317392e-03 4.2280654388336295e-04 1.3070129105338083e-03 5.2903062739457195e-04 0.0000000000000000e+00 0.0000000000000000e+00 0.0000000000000000e+00
222 7.5283396537633004e-04 1.2612817980319872e-03 8.1016831175858965e-04 1.3786495946160049e-03 6.0126245189278185e-04 0.0000000000000000e+00 0.0000000000000000e+00 0.0000000000000000e+00
223 7.5690064929996343e-04 -9.6786136242537919e-04 -1.1540466096918787e-03 -1.0289437135292737e-03 1.1083370545162696e-03 0.0000000000000000e+00 0.0000000000000000e+00 0.0000000000000000e+00
224 6.6645342100894213e-04 -6.9920085770053579e-04 -1.1259894806872816e-03 -9.8772862736469969e-04 8.9367203924755711e-04 0.0000000000000000e+00 0.0000000000000000e+00 0.0000000000000000e+00
225 8.7220422410958388e-04 1.3989004623898146e-03 1.0252751150581412e-03 1.7422417176647484e-03 2.9578485536871326e-05 0.0000000000000000e+00 0.0000000000000000e+00 0.0000000000000000e+00
226 7.7200680433714636e-04 1.0932137807168013e-03 1.0769033753896360e-03 1.5312141014082686e-03 1.8865151177804686e-04 0.0000000000000000e+00 0.0000000000000000e+00 0.0000000000000000e+00
227 1.1278088148789168e-03 1.4679471569287996e-03 1.6915743853074983e-03 9.0356279524112122e-04 2.0630287934295518e-03 0.0000000000000000e+00 0.0000000000000000e+00 0.0000000000000000e+00
228 1.0977782217480589e-03 9.0484789549387975e-04 1.9858217518725321e-03 7.3606505265349316e-04 2.0647290172209789e-03 0.0000000000000000e+00 0.0000000000000000e+00 0.0000000000000000e+00
229 7.0397482489576650e-04 8.9813966173500691e-04 1.0763894980451356e-03 3.8559520713311602e-04 1.3526906548342649e-03 0.0000000000000000e+00 0.0000000000000000e+00 0.0000000000000000e+00
230 9.9074663698528508e-04 -5.5140084066214619e-04 -1.8909337380943335e-03 1.9775529920851771e-03 6.9456887063294774e-05 0.0000000000000000e+00 0.0000000000000000e+00 0.0000000000000000e+00
231 9.3131099920324605e-04 1.8476236952304605e-03 8.3909576631738234e-05 1.3193102946801422e-03 -1.3121839064610943e-03 0.0000000000000000e+00 0.0000000000000000e+00 0.0000000000000000e+00
232 9.1297367891049030e-04 1.7769220203198604e-03 -3.6106872222154335e-04 1.3946617818960593e-03 -1.1758080593772726e-03 0.0000000000000000e+00 0.0000000000000000e+00 0.0000000000000000e+00
233 1.1388291610286083e-03 -5.1045257822207861e-04 2.2002345022660735e-03 -1.9169411278354210e-03 -1.2247129999762233e-03 0.0000000000000000e+00 0.0000000000000000e+00 0.0000000000000000e+00
234 8.0862030154783761e-04 -5.9022399564922416e-04 -1.4952401556467035e-03 -5.1151230626213706e-04 -1.5326341681373597e-03 0.0000000000000000e+00 0.0000000000000000e+00 0.0000000000000000e+00
235 7.0430416723323225e-04 -8.6631976295636166e-04 -1.1007884896189555e-03 -3.7347604893277941e-04 -1.3570558276313662e-03 0.0000000000000000e+00 0.0000000000000000e+00 0.0000000000000000e+00
236 1.2935053198265198e-03 1.9360279328825343e-03 -1.6761935058158379e-03 -2.0105394090006224e-03 1.6223344901953218e-03 0.0000000000000000e+00 0.0000000000000000e+00 0.0000000000000000e+00
237 7.4076533706386564e-04 8.3451661324784692e-04 -1.2138419351676137e-03 -1.2236162579346407e-03 8.3318680051660242e-04 0.0000000000000000e+00 0.0000000000000000e+00 0.0000000000000000e+00
238 7.3691394495078804e-04 7.1007451113736225e-04 -1.2818717626452013e-03 -1.1245525482321086e-03 9.5083480552162045e-04 0.0000000000000000e+00 0.0000000000000000e+00 0.0000000000000000e+00
239 1.1346157450381343e-03 -8.3687163161807988e-04 2.0868725832334564e-03 -1.5090118150981129e-03 -1.6911798339308490e-03 0.0000000000000000e+00 0.0000000000000000e+00 0.0000000000000000e+00
240 1.2241545838526211e-03 5.8510577056923119e-04 2.3583548067803209e-03 -1.7389240992121879e-03 -1.7177522485469655e-03 0.0000000000000000e+00 0.0000000000000000e+00 0.0000000000000000e+00
241 7.3691394495078782e-04 7.1007451113736203e-04 1.2818717626452009e-03 -1.1245525482321088e-03 -9.5083480552162045e-04 0.0000000000000000e+00 0.0000000000000000e+00 0.0000000000000000e+00
242 9.2417317239516057e-04 5.5295903318085509e-04 1.7533709209505504e-03 -1.5067209098421914e-03 -1.0662436907018847e-03 0.0000000000000000e+00 0.0000000000000000e+00 0.0000000000000000e+00
243 1.1400813889357493e-03 8.5300618971890900e-04 -2.0965558022496525e-03 2.2740090569009427e-03 1.1323562477972424e-04 0.0000000000000000e+00 0.0000000000000000e+00 0.0000000000000000e+00
244 5.6209317934993524e-04 2.7378668450805694e-04 -1.0860628723017907e-03 1.1218486390881790e-03 -5.8444927868844961e-05 0.0000000000000000e+00 0.0000000000000000e+00 0.0000000000000000e+00
245 7.6027852564101387e-04 7.0821897015677592e-04 -1.3367286152128081e-03 1.5121749938799619e-03 -1.4478819907250753e-04 0.0000000000000000e+00 0.0000000000000000e+00 0.0000000000000000e+00
246 9.5209957224461224e-04 -1.7532095879242936e-03 7.0745213505207436e-04 1.8966264476277138e-03 1.4493598907571321e-04 0.0000000000000000e+00 0.0000000000000000e+00 0.0000000000000000e+00
247 6.0668429538914220e-04 -1.2021308437028947e-03 1.3437294775165231e-04 1.2086919342432099e-03 8.7031807932613594e-05 0.0000000000000000e+00 0.0000000000000000e+00 0.0000000000000000e+00
248 7.4643376968433147e-04 -1.4406788373796955e-03 3.5987244570828794e-04 1.4693133649315623e-03 2.5631915466910546e-04 0.0000000000000000e+00 0.0000000000000000e+00 0.0000000000000000e+00
249 8.2619073115008891e-04 -2.8225172714661800e-04 1.6181653914879798e-03 1.1254080917180373e-03 -1.2077127027053651e-03 0.0000000000000000e+00 0.0000000000000000e+00 0.0000000000000000e+00
250 7.7398676879538949e-04 -4.1194617047694035e-04 1.4832318844702637e-03 9.0553695441998735e-04 -1.2536400774169961e-03 0.0000000000000000e+00 0.0000000000000000e+00 0.0000000000000000e+00
251 1.1705385873288893e-03 -1.3288235088409841e-03 -1.9083518876253102e-03 -1.4606967819124521e-03 -1.8243176330381321e-03 0.0000000000000000e+00 0.0000000000000000e+00 0.0000000000000000e+00
252 7.5204713677544562e-04 -4.9972558003913621e-04 -1.4099434545087582e-03 -9.8830911843325532e-04 -1.1320888529180344e-03 0.0000000000000000e+00 0.0000000000000000e+00 0.0000000000000000e+00
253 1.1053163468551183e-03 -6.3350573035853334e-04 -2.0991188013688255e-03 -1.2463192643412048e-03 -1.8224644721008215e-03 0.0000000000000000e+00 0.0000000000000000e+00 0.0000000000000000e+00
254 6.6765342778406656e-04 3.1037919559975249e-04 -1.2924579308508039e-03 1.0802450460624061e-03 7.8299955357258473e-04 0.0000000000000000e+00 0.0000000000000000e+00 0.0000000000000000e+00
255 1.0246674646612725e-03 2.2236894232852104e-04 -2.0237333785306641e-03 1.4978196361656335e-03 1.3947209172714319e-03 0.0000000000000000e+00 0.0000000000000000e+00 0.0000000000000000e+00
256 8.4745213602823463e-04 -4.1476570677914803e-05 -1.6850846614779936e-03 1.3883592402610665e-03 9.6890711371961714e-04 0.0000000000000000e+00 0.0000000000000000e+00 0.0000000000000000e+00
257 1.0965854865270146e-03 8.8280660864165149e-04 1.9916637848612492e-03 1.0485028315415439e-03 1.9224660280248202e-03 0.0000000000000000e+00 0.0000000000000000e+00 0.0000000000000000e+00
258 1.2598415731796954e-03 2.2566040727925893e-04 2.4877962249146650e-03 1.3788994531304852e-03 2.1044086308781994e-03 0.0000000000000000e+00 0.0000000000000000e+00 0.0000000000000000e+00
259 8.5606275464819787e-04 2.9976217531810169e-04 1.6763040093942304e-03 7.1841315348011793e-04 1.5519501990232981e-03 0.0000000000000000e+00 0.0000000000000000e+00 0.0000000000000000e+00
260 5.5513957521317685e-04 -5.9231347908615954e-04 9.3508680532342590e-04 -1.0449437469122924e-03 -3.7243465834374897e-04 0.0000000000000000e+00 0.0000000000000000e+00 0.0000000000000000e+00
261 1.0654422548918763e-03 -9.9637942903947618e-04 1.8670463471274026e-03 -1.8936469628797804e-03 -9.7065622530802611e-04 0.0000000000000000e+00 0.0000000000000000e+00 0.0000000000000000e+00
262 5.4470543119316910e-04 -3.8545856785433076e-04 1.0154980688797388e-03 -1.0183823822055866e-03 -3.8430940133771170e-04 0.0000000000000000e+00 0.0000000000000000e+00 0.0000000000000000e+00
263 7.6175795374609453e-04 1.5075520810885264e-03 -1.4203296916883253e-04 -1.2482826176093826e-03 8.7125220615341193e-04 0.0000000000000000e+00 0.0000000000000000e+00 0.0000000000000000e+00
264 1.0513523159521216e-03 1.9593124472587066e-03 -7.1163828834809974e-04 -1.5981897725770059e-03 1.3629683609375075e-03 0.0000000000000000e+00 0.0000000000000000e+00 0.0000000000000000e+00
265 7.8996295162532993e-04 1.5701572540728079e-03 -3.9683758752666219e-05 -1.1939974968247209e-03 1.0322570009620620e-03 0.0000000000000000e+00 0.0000000000000000e+00 0.0000000000000000e+00
266 8.4782676874594265e-04 1.1596276942927410e-03 -1.2219626460651125e-03 1.2247789221464930e-03 -1.1704485982982208e-03 0.0000000000000000e+00 0.0000000000000000e+00 0.0000000000000000e+00
267 1.1151015637507716e-03 -9.4633749034424817e-04 2.0005014057272461e-03 2.0115550014330554e-03 -9.5607014806934612e-04 0.0000000000000000e+00 0.0000000000000000e+00 0.0000000000000000e+00
268 1.2750975147202226e-03 2.4679135022734372e-03 -5.5636397319483585e-04 1.3274866813879566e-03 2.1724473245414576e-03 0.0000000000000000e+00 0.0000000000000000e+00 0.0000000000000000e+00
269 1.1169086689452217e-03 1.8711072000597306e-03 -1.1881389639480161e-03 1.2659045154991241e-03 1.8369662991622436e-03 0.0000000000000000e+00 0.0000000000000000e+00 0.0000000000000000e+00
270 1.0509388922471899e-03 1.9988069140207858e-03 -5.9926719221814256e-04 1.3370045103127115e-03 1.6184164672119750e-03 0.0000000000000000e+00 0.0000000000000000e+00 0.0000000000000000e+00
271 8.8604000002170751e-04 -2.8335459576798197e-04 1.7383849062203923e-03 -1.6021219110335968e-03 -7.5282460641256364e-04 0.0000000000000000e+00 0.0000000000000000e+00 0.0000000000000000e+00
272 7.6442934586430796e-04 -7.3459614820346546e-05 -1.5210128992679756e-03 1.3686969576601749e-03 -6.7710157016036786e-04 0.0000000000000000e+00 0.0000000000000000e+00 0.0000000000000000e+00
273 1.0330110223642128e-03 1.1614580177643698e-03 -1.6842315011862759e-03 -6.0054043611555653e-04 -1.9748777134104981e-03 0.0000000000000000e+00 0.0000000000000000e+00 0.0000000000000000e+00
274 5.5027171803571874e-04 6.8261080999938695e-04 -8.5740553103916728e-04 -2.0897608766702819e-04 -1.0798317852530723e-03 0.0000000000000000e+00 0.0000000000000000e+00 0.0000000000000000e+00
275 5.0776262415517441e-04 4.2186854526413630e-04 -9.1943058271904353e-04 -1.9905441477173369e-04 -9.9519767480121682e-04 0.0000000000000000e+00 0.0000000000000000e+00 0.0000000000000000e+00
276 9.1203756229867733e-04 -1.3702508816855975e-03 1.1864739726578615e-03 1.7527282602328941e-03 -4.9796725204411039e-04 0.0000000000000000e+00 0.0000000000000000e+00 0.0000000000000000e+00
277 1.1360128045870633e-03 -2.1270407684185469e-03 7.3809254753826970e-04 2.1808737986613170e-03 -6.2761402505475414e-04 0.0000000000000000e+00 0.0000000000000000e+00 0.0000000000000000e+00
278 7.2877748309071511e-04 -1.2339051662494766e-03 7.6246255535465505e-04 1.4324935072304677e-03 -2.6189241655464880e-04 0.0000000000000000e+00 0.0000000000000000e+00 0.0000000000000000e+00
279 9.8564219757145475e-04 1.9570341619837440e-03 2.3224283988620672e-06 6.0755041902028071e-04 -1.8729407656962469e-03 0.0000000000000000e+00 0.0000000000000000e+00 0.0000000000000000e+00
280 1.1552967998095381e-03 2.2897983538563110e-03 -9.5799626686953466e-05 4.0161918253222521e-04 -2.2722270311959303e-03 0.0000000000000000e+00 0.0000000000000000e+00 0.0000000000000000e+00
281 8.5728146102001090e-04 1.6426292167879511e-03 4.5454998127275039e-04 4.0746561056929285e-04 -1.6636184192264341e-03 0.0000000000000000e+00 0.0000000000000000e+00 0.0000000000000000e+00
282 1.0893739601843708e-03 2.1414286058233961e-03 -2.9797144828462737e-04 -2.0839667287299449e-03 -6.2602040571855687e-04 0.0000000000000000e+00 0.0000000000000000e+00 0.0000000000000000e+00
283 8.0257258645775236e-04 1.5937114076415748e-03 7.1608137441322127e-05 -1.4679293413467202e-03 -6.4570533055169756e-04 0.0000000000000000e+00 0.0000000000000000e+00 0.0000000000000000e+00
284 6.1550729374511325e-04 1.1936576270953352e-03 -2.8020469699322083e-04 -1.1293664185597716e-03 -4.8734347500528261e-04 0.0000000000000000e+00 0.0000000000000000e+00 0.0000000000000000e+00
285 1.0707320255381942e-03 -7.9382847960581492e-04 1.9672063053585999e-03 2.0749064449198671e-03 5.2065093415618708e-04 0.0000000000000000e+00 0.0000000000000000e+00 0.0000000000000000e+00
286 8.1891499703793964e-04 -2.7516915400578005e-04 1.6041476415814919e-03 1.5443262362412685e-03 5.4111074435912797e-04 0.0000000000000000e+00 0.0000000000000000e+00 0.0000000000000000e+00
287 1.0006475732613597e-03 1.9702631024137917e-03 2.4069842502553277e-04 1.5807010085597153e-03 -1.2241788232700836e-03 0.0000000000000000e+00 0.0000000000000000e+00 0.0000000000000000e+00
288 1.0271335837181413e-03 1.2783951859822007e-03 1.5861517618596067e-03 1.2679431813283624e-03 -1.6135133667519574e-03 0.0000000000000000e+00 0.0000000000000000e+00 0.0000000000000000e+00
289 9.3278105872735884e-04 8.0334187690358821e-04 1.6699053706783326e-03 9.5825075866982391e-04 -1.5980955755737320e-03 0.0000000000000000e+00 0.0000000000000000e+00 0.0000000000000000e+00
290 7.0890725036223858e-04 5.0664912060672434e-04 1.3151834198395506e-03 8.5442010186911302e-04 -1.1301699361621551e-03 0.0000000000000000e+00 0.0000000000000000e+00 0.0000000000000000e+00
291 9.8201675384166297e-04 -1.8755493564244631e-03 -5.3859870525525301e-04 1.8746018525646689e-03 -5.7776768698264164e-04 0.0000000000000000e+00 0.0000000000000000e+00 0.0000000000000000e+00
292 7.8365455262869525e-04 -1.4016660176141458e-03 -6.8364417034134277e-04 1.4247796928934880e-03 -6.4905514551241044e-04 0.0000000000000000e+00 0.0000000000000000e+00 0.0000000000000000e+00
293 6.5341092303870698e-04 -1.1001968353948665e-03 -6.9430225934467523e-04 1.2354635691724943e-03 -4.2267496662232098e-04 0.0000000000000000e+00 0.0000000000000000e+00 0.0000000000000000e+00
294 6.8614855126104032e-04 6.2897343906211426e-04 1.2131239592340270e-03 1.2143827286178268e-03 6.3632740945087198e-04 0.0000000000000000e+00 0.0000000000000000e+00 0.0000000000000000e+00
295 9.0174833925122017e-04 7.3785013349065079e-04 -1.6346018613214582e-03 1.6449157908332668e-03 7.3417681334410735e-04 0.0000000000000000e+00 0.0000000000000000e+00 0.0000000000000000e+00
296 9.1813601325220864e-04 1.2122799537473414e-03 -1.3615779583243575e-03 1.6733639521158046e-03 7.5141563759704858e-04 0.0000000000000000e+00 0.0000000000000000e+00 0.0000000000000000e+00
297 1.0310655367498133e-03 2.0184269592513891e-03 3.5815965665076191e-04 8.2006894261696839e-05 2.0574115434580519e-03 0.0000000000000000e+00 0.0000000000000000e+00 0.0000000000000000e+00
298 6.3671509091808712e-04 -1.0229126889360594e-03 -7.4849802997336591e-04 7.9369984115468565e-05 -1.2700246492075584e-03 0.0000000000000000e+00 0.0000000000000000e+00 0.0000000000000000e+00
299 1.0380985456245229e-03 -1.9546208851110311e-03 -6.4720192448597890e-04 1.1869523932550893e-04 -2.0705168370491506e-03 0.0000000000000000e+00 0.0000000000000000e+00 0.0000000000000000e+00
300 8.1102960609941393e-04 -1.3769764104641403e-03 -8.3847608588936637e-04 -7.3868191651420623e-05 -1.6189210622287375e-03 0.0000000000000000e+00 0.0000000000000000e+00 0.0000000000000000e+00
301 8.3077632727152203e-04 5.4345973357348488e-04 -1.5594992881209841e-03 -1.5111059177817120e-03 -6.8694303285284140e-04 0.0000000000000000e+00 0.0000000000000000e+00 0.0000000000000000e+00
302 9.6835810787177120e-04 1.1648867143898025e-03 -1.5302056922372777e-03 -1.7776158481251014e-03 -7.6291949482441574e-04 0.0000000000000000e+00 0.0000000000000000e+00 0.0000000000000000e+00
303 5.4120234130273679e-04 5.5929458019636979e-04 -9.2133306709648872e-04 -9.5073615200845572e-04 -5.1604630390726484e-04 0.0000000000000000e+00 0.0000000000000000e+00 0.0000000000000000e+00
304 1.0702353722454787e-03 2.8147891688823763e-04 2.1063407239631303e-03 1.4213408096506101e-03 1.5967191890620535e-03 0.0000000000000000e+00 0.0000000000000000e+00 0.0000000000000000e+00
305 1.0335386646557808e-03 7.9380833252537964e-04 1.8923855753768697e-03 1.2410690803100382e-03 1.6499328127368706e-03 0.0000000000000000e+00 0.0000000000000000e+00 0.0000000000000000e+00
306 8.9509855418082871e-04 7.7635524356605638e-04 1.5994775681073747e-03 1.2493193264595192e-03 1.2798047301545918e-03 0.0000000000000000e+00 0.0000000000000000e+00 0.0000000000000000e+00
307 5.5862951976694535e-04 8.5087028965680309e-04 -7.1704349933845188e-04 -4.9379961042281815e-04 -1.0014081235058996e-03 0.0000000000000000e+00 0.0000000000000000e+00 0.0000000000000000e+00
308 8.8285658879868505e-04 1.4141826730943515e-03 -1.0365503378878401e-03 -6.0397498157260809e-04 -1.6574438161426721e-03 0.0000000000000000e+00 0.0000000000000000e+00 0.0000000000000000e+00
309 5.9455436965167696e-04 7.3681016649264038e-04 -9.2627571409249483e-04 -4.6357318952177057e-04 -1.0941992102501685e-03 0.0000000000000000e+00 0.0000000000000000e+00 0.0000000000000000e+00
310 9.8960956658063833e-04 -1.4104124389959264e-03 -1.3705931486208279e-03 1.4403598653027635e-03 1.3536869777312761e-03 0.0000000000000000e+00 0.0000000000000000e+00 0.0000000000000000e+00
311 7.6110385160920498e-04 -8.9074724507588624e-04 -1.2249009041393189e-03 1.2102846068861720e-03 9.2082076440316092e-04 0.0000000000000000e+00 0.0000000000000000e+00 0.0000000000000000e+00
312 9.9763725416638651e-04 -8.6088069831649129e-04 -1.7845412703392687e-03 1.4649060811317040e-03 1.3511911209596328e-03 0.0000000000000000e+00 0.0000000000000000e+00 0.0000000000000000e+00
313 1.0746563382832046e-03 -1.9596700586017152e-03 -8.4076450252597692e-04 -9.4181944344369885e-04 -1.9288828343941074e-03 0.0000000000000000e+00 0.0000000000000000e+00 0.0000000000000000e+00
314 1.0561852381290246e-03 -1.8374344247549428e-03 -1.0163755601493858e-03 -1.1804411482927817e-03 -1.7476767145180861e-03 0.0000000000000000e+00 0.0000000000000000e+00 0.0000000000000000e+00
315 1.0206634899658025e-03 -1.5436146431815881e-03 -1.3154878982292388e-03 -9.0129625830993832e-04 -1.8284819462214912e-03 0.0000000000000000e+00 0.0000000000000000e+00 0.0000000000000000e+00
316 1.1351203330545151e-03 -3.9763353814271594e-06 -2.2534457737172467e-03 1.8635725192951370e-03 -1.2908310455912880e-03 0.0000000000000000e+00 0.0000000000000000e+00 0.0000000000000000e+00
317 8.1047049142203749e-04 5.2080159713135596e-04 -1.5245879457477299e-03 1.3429844415251463e-03 -9.0508368584027530e-04 0.0000000000000000e+00 0.0000000000000000e+00 0.0000000000000000e+00
318 7.6946954225330742e-04 1.2175532820688953e-03 -9.3016660630811186e-04 5.4635347973469532e-05 1.5362677158305325e-03 0.0000000000000000e+00 0.0000000000000000e+00 0.0000000000000000e+00
319 1.0595251776235927e-03 1.5005753638518363e-03 -1.4789158808516257e-03 3.4921815307084722e-04 2.0866159414031980e-03 0.0000000000000000e+00 0.0000000000000000e+00 0.0000000000000000e+00
320 7.4216064130675624e-04 1.2965587345402654e-03 -7.0946416073311815e-04 2.1873565244821171e-04 1.4665106198216060e-03 0.0000000000000000e+00 0.0000000000000000e+00 0.0000000000000000e+00
321 9.3763112139783533e-04 -7.6807623418221249e-04 -1.6985738662720861e-03 3.3541184086437165e-04 -1.8426658936037707e-03 0.0000000000000000e+00 0.0000000000000000e+00 0.0000000000000000e+00
322 9.7797868624659406e-04 -1.0223009249815691e-03 -1.6526893427013252e-03 6.1960367500617621e-04 -1.8526627906757125e-03 0.0000000000000000e+00 0.0000000000000000e+00 0.0000000000000000e+00
323 6.3883847938995446e-04 -8.1776767142291299e-04 -9.7299266604923562e-04 2.8045708431449030e-04 -1.2456622767241530e-03 0.0000000000000000e+00 0.0000000000000000e+00 0.0000000000000000e+00
324 1.1206550526865029e-03 -8.9927125945834412e-04 2.0341812207894014e-03 1.0532079145557554e-03 -1.9750623298118424e-03 0.0000000000000000e+00 0.0000000000000000e+00 0.0000000000000000e+00
325 9.5073955332329238e-04 -9.6403163550381565e-04 -1.6265593053935848e-03 8.5027873466744937e-04 -1.6979903153364834e-03 0.0000000000000000e+00 0.0000000000000000e+00 0.0000000000000000e+00
326 9.5364959598684656e-04 -4.7954165489326868e-04 -1.8334901033865956e-03 9.7083653913421599e-04 -1.6390725082805627e-03 0.0000000000000000e+00 0.0000000000000000e+00 0.0000000000000000e+00
327 4.8077943100247923e-04 -9.5571104287889752e-04 -8.6421570285963152e-05 -1.6333588641479689e-04 9.4637669071389696e-04 0.0000000000000000e+00 0.0000000000000000e+00 0.0000000000000000e+00
328 8.0281512852169612e-04 -1.5483431865604496e-03 -3.9226213774899645e-04 -3.7749081328175256e-04 1.5589334947237769e-03 0.0000000000000000e+00 0.0000000000000000e+00 0.0000000000000000e+00
329 7.8267567367193728e-04 -1.4564852090572721e-03 -5.4487818562052638e-04 -1.0436882729961551e-03 -1.1649134971983988e-03 0.0000000000000000e+00 0.0000000000000000e+00 0.0000000000000000e+00
330 7.5278476093253871e-04 -1.4570210891002337e-03 -3.4767998778992439e-04 -1.1169817547472421e-03 -1.0073467809827911e-03 0.0000000000000000e+00 0.0000000000000000e+00 0.0000000000000000e+00
331 6.6360501649400999e-04 -1.1451002728352488e-03 -6.5865404396631480e-04 -9.6852451372703727e-04 -9.0590537240493917e-04 0.0000000000000000e+00 0.0000000000000000e+00 0.0000000000000000e+00
332 5.2724943248904385e-04 5.4024600219597970e-04 9.0043435039776449e-04 -8.7507756087630215e-04 5.8730514791112843e-04 0.0000000000000000e+00 0.0000000000000000e+00 0.0000000000000000e+00
333 5.2171651625000539e-04 3.4743641557951135e-04 9.8074383530004166e-04 -8.9246055908456963e-04 5.3899159444525230e-04 0.0000000000000000e+00 0.0000000000000000e+00 0.0000000000000000e+00
334 9.7107701915855656e-04 -1.3865544496404812e-03 -1.3420316052566131e-03 -1.7982957214879244e-03 7.2720646657759372e-04 0.0000000000000000e+00 0.0000000000000000e+00 0.0000000000000000e+00
335 5.5513957521317707e-04 -5.9231347908615954e-04 -9.3508680532342580e-04 -1.0449437469122918e-03 3.7243465834374892e-04 0.0000000000000000e+00 0.0000000000000000e+00 0.0000000000000000e+00
336 6.2374726457777485e-04 -8.1226906057987782e-04 -9.4051478114507282e-04 -1.2041491658952104e-03 3.2183103943444764e-04 0.0000000000000000e+00 0.0000000000000000e+00 0.0000000000000000e+00
337 9.5792637760775182e-04 4.5453867987703034e-05 -1.9041134520732105e-03 -1.5157368227088827e-03 1.1677023204945578e-03 0.0000000000000000e+00 0.0000000000000000e+00 0.0000000000000000e+00
338 1.2241545838526211e-03 5.8510577056923119e-04 -2.3583548067803205e-03 -1.7389240992121873e-03 1.7177522485469659e-03 0.0000000000000000e+00 0.0000000000000000e+00 0.0000000000000000e+00
339 9.2417317239516035e-04 5.5295903318085542e-04 -1.7533709209505508e-03 -1.5067209098421912e-03 1.0662436907018849e-03 0.0000000000000000e+00 0.0000000000000000e+00 0.0000000000000000e+00
340 4.3357048886407751e-04 -6.7837671203664369e-04 5.3188070909493770e-04 -8.6616543926118614e-04 3.3157059616428738e-05 0.0000000000000000e+00 0.0000000000000000e+00 0.0000000000000000e+00
341 4.4541112293178004e-04 -5.2087548065766554e-04 7.1633872405183385e-04 -8.8981902465095448e-04 3.4231919664280465e-05 0.0000000000000000e+00 0.0000000000000000e+00 0.0000000000000000e+00
342 1.0000551637022145e-03 -1.3237157629846566e-03 1.4829428575287517e-03 -1.9798478675342765e-03 2.6349967398675691e-04 0.0000000000000000e+00 0.0000000000000000e+00 0.0000000000000000e+00
343 1.0615100291074063e-03 8.4961826152377378e-04 1.9234134635611939e-03 1.4564641050585703e-03 -1.5417826322661006e-03 0.0000000000000000e+00 0.0000000000000000e+00 0.0000000000000000e+00
344 1.0246674646612729e-03 2.2236894232852106e-04 2.0237333785306649e-03 1.4978196361656333e-03 -1.3947209172714317e-03 0.0000000000000000e+00 0.0000000000000000e+00 0.0000000000000000e+00
345 6.4270838358369733e-04 4.8392572390847582e-04 1.1850410539479392e-03 9.8627529364538774e-04 -8.2259446202548542e-04 0.0000000000000000e+00 0.0000000000000000e+00 0.0000000000000000e+00
346 1.1865832322352585e-03 -1.9987421380074054e-03 1.2452763902806308e-03 -1.2404461152661860e-03 -2.0190154667899494e-03 0.0000000000000000e+00 0.0000000000000000e+00 0.0000000000000000e+00
347 7.7963288445701928e-04 -1.4616829815647693e-03 5.1558722321180773e-04 -6.6687945076492343e-04 -1.4079841160204182e-03 0.0000000000000000e+00 0.0000000000000000e+00 0.0000000000000000e+00
348 7.0544174655344321e-04 -1.1449526539857669e-03 8.1256471849401309e-04 -5.6368765884016450e-04 -1.2920021786961950e-03 0.0000000000000000e+00 0.0000000000000000e+00 0.0000000000000000e+00
349 9.4754681495684144e-04 -1.4899846641862084e-03 -1.1513129232854696e-03 1.5421068718655115e-03 1.0977028760650223e-03 0.0000000000000000e+00 0.0000000000000000e+00 0.0000000000000000e+00
350 8.5001538918924276e-04 -7.1508677576461528e-04 1.5307293630239349e-03 -1.6593229428155279e-03 3.6209053192706595e-04 0.0000000000000000e+00 0.0000000000000000e+00 0.0000000000000000e+00
351 1.2365938306520274e-03 -3.6184781939317630e-04 2.4276255034075900e-03 -2.4445125128268524e-03 3.4797412726834709e-04 0.0000000000000000e+00 0.0000000000000000e+00 0.0000000000000000e+00
352 9.3788880327444425e-04 -3.5966889533540618e-04 1.8292506570710314e-03 -1.7921168250191752e-03 5.4625073889531383e-04 0.0000000000000000e+00 0.0000000000000000e+00 0.0000000000000000e+00
353 6.5767983394084400e-04 -1.2818476009567367e-03 -2.7267994203725019e-04 1.1969401235560270e-03 -5.4231223896329401e-04 0.0000000000000000e+00 0.0000000000000000e+00 0.0000000000000000e+00
354 1.1830944974510341e-03 1.1230106307067036e-04 2.3469620395531418e-03 -5.6691277591012742e-04 -2.2932149595647502e-03 0.0000000000000000e+00 0.0000000000000000e+00 0.0000000000000000e+00
355 8.9126371453944486e-04 -5.2685908750444517e-04 1.6865043178846922e-03 -5.3122518671016043e-04 -1.7000946361282068e-03 0.0000000000000000e+00 0.0000000000000000e+00 0.0000000000000000e+00
356 4.1714492529395153e-04 -1.5992638181030290e-04 8.1647349596691745e-04 -1.7227105466224881e-04 -8.1581922529888411e-04 0.0000000000000000e+00 0.0000000000000000e+00 0.0000000000000000e+00
357 1.3144388566816024e-03 -8.4084010941375833e-05 -2.6035590994335348e-03 -1.6131011850356164e-03 2.0704993406100813e-03 0.0000000000000000e+00 0.0000000000000000e+00 0.0000000000000000e+00
358 9.9870182022167363e-04 -4.8366786444012937e-05 -1.9829176702346866e-03 1.9437088063251871e-03 -4.4966396281093834e-04 0.0000000000000000e+00 0.0000000000000000e+00 0.0000000000000000e+00
359 5.7215340777422893e-04 5.6263635257091545e-05 -1.1393641758770656e-03 1.1370631952686032e-03 -1.1919890954396309e-04 0.0000000000000000e+00 0.0000000000000000e+00 0.0000000000000000e+00
360 8.7834813575862368e-04 1.6847706288732451e-03 4.6071357897846740e-04 -1.7337238227712922e-03 2.6953887806795580e-04 0.0000000000000000e+00 0.0000000000000000e+00 0.0000000000000000e+00
361 1.0893739601843706e-03 2.1414286058233957e-03 2.9797144828462737e-04 -2.0839667287299453e-03 6.2602040571855719e-04 0.0000000000000000e+00 0.0000000000000000e+00 0.0000000000000000e+00
362 5.4762542341954903e-04 9.9735139495022969e-04 4.4360436462948731e-04 -1.0648282764539783e-03 2.5240918292800688e-04 0.0000000000000000e+00 0.0000000000000000e+00 0.0000000000000000e+00
363 1.0952368973312229e-03 7.9741411255247004e-04 2.0237147107772333e-03 -8.4530490424599347e-04 2.0174406591451912e-03 0.0000000000000000e+00 0.0000000000000000e+00 0.0000000000000000e+00
364 8.2268774513566607e-04 1.3039152500712192e-04 1.6291644651899178e-03 -7.1436354404660072e-04 1.4806799326382413e-03 0.0000000000000000e+00 0.0000000000000000e+00 0.0000000000000000e+00
365 9.3815615444341508e-04 6.0987447968054241e-04 1.7615829252056636e-03 -9.5487433672241349e-04 1.6126820398062447e-03 0.0000000000000000e+00 0.0000000000000000e+00 0.0000000000000000e+00
366 4.1644789523059757e-04 -8.2871617090801654e-04 -6.7280472493708689e-05 -5.5227332765324226e-04 6.2216993995018865e-04 0.0000000000000000e+00 0.0000000000000000e+00 0.0000000000000000e+00
367 4.4667041047471154e-04 -8.8827562806865102e-04 -7.6983713125516353e-05 -5.0476557563253102e-04 7.3580150263688850e-04 0.0000000000000000e+00 0.0000000000000000e+00 0.0000000000000000e+00
368 1.1180710586296179e-03 -2.1187405592473282e-03 -6.5904157250708110e-04 -1.3776252826968201e-03 1.7575656642684343e-03 0.0000000000000000e+00 0.0000000000000000e+00 0.0000000000000000e+00
369 1.1375487784596441e-03 1.2538159543272628e-03 1.8789073445748977e-03 -7.9319720012765071e-04 -2.1287750929044474e-03 0.0000000000000000e+00 0.0000000000000000e+00 0.0000000000000000e+00
370 1.1891379101159085e-03 1.0304546168090855e-03 2.1221908848482506e-03 -1.1278611760723867e-03 -2.0899514428341826e-03 0.0000000000000000e+00 0.0000000000000000e+00 0.0000000000000000e+00
371 1.1994692480831342e-03 2.8008004614842204e-04 -2.3621970823988034e-03 -2.0924662163641539e-03 1.1663382958577192e-03 0.0000000000000000e+00 0.0000000000000000e+00 0.0000000000000000e+00
372 8.8604000002170729e-04 -2.8335459576798197e-04 -1.7383849062203923e-03 -1.6021219110335971e-03 7.5282460641256353e-04 0.0000000000000000e+00 0.0000000000000000e+00 0.0000000000000000e+00
373 1.1388291610286083e-03 -5.1045257822207851e-04 -2.2002345022660735e-03 -1.9169411278354210e-03 1.2247129999762235e-03 0.0000000000000000e+00 0.0000000000000000e+00 0.0000000000000000e+00
374 7.9305297894607734e-04 1.5760646444809678e-03 -6.8029961980204786e-05 -1.0804846774575862e-03 -1.1588984970199846e-03 0.0000000000000000e+00 0.0000000000000000e+00 0.0000000000000000e+00
375 1.0181459300271363e-03 2.0038452378045341e-03 2.7433254418295479e-04 -1.1840721584949125e-03 -1.6535088720844350e-03 0.0000000000000000e+00 0.0000000000000000e+00 0.0000000000000000e+00
376 5.9590494213684799e-04 1.1741577353086444e-03 -1.7261766334750184e-04 -7.2258262678576613e-04 -9.4673272171183357e-04 0.0000000000000000e+00 0.0000000000000000e+00 0.0000000000000000e+00
377 7.4632182380422057e-04 2.8697114759559543e-04 1.4573637355138581e-03 1.3117120515963043e-03 7.0928082770930719e-04 0.0000000000000000e+00 0.0000000000000000e+00 0.0000000000000000e+00
378 8.7220422412489791e-04 1.3989004624278439e-03 -1.0252751150579304e-03 1.7422417176959221e-03 -2.9578485498776907e-05 0.0000000000000000e+00 0.0000000000000000e+00 0.0000000000000000e+00
379 7.7200680426641182e-04 1.0932137806274520e-03 -1.0769033752795660e-03 1.5312141012737597e-03 -1.8865151171605882e-04 0.0000000000000000e+00 0.0000000000000000e+00 0.0000000000000000e+00
380 1.1180710586296176e-03 -2.1187405592473277e-03 6.5904157250708110e-04 -1.3776252826968201e-03 -1.7575656642684341e-03 0.0000000000000000e+00 0.0000000000000000e+00 0.0000000000000000e+00
381 4.4667041047471154e-04 -8.8827562806865102e-04 7.6983713125516339e-05 -5.0476557563253102e-04 -7.3580150263688829e-04 0.0000000000000000e+00 0.0000000000000000e+00 0.0000000000000000e+00
382 7.1568915876381290e-04 -1.3826325898613075e-03 3.3940082679265117e-04 -7.3948001761345414e-04 -1.2242106190318914e-03 0.0000000000000000e+00 0.0000000000000000e+00 0.0000000000000000e+00
383 9.5354305139897151e-04 1.1437649226257926e-03 1.5128431489476294e-03 4.9019300668810120e-05 -1.9038978215574437e-03 0.0000000000000000e+00 0.0000000000000000e+00 0.0000000000000000e+00
384 7.6946954220255797e-04 1.2175532819979520e-03 9.3016660623546532e-04 5.4635347964358730e-05 -1.5362677157294816e-03 0.0000000000000000e+00 0.0000000000000000e+00 0.0000000000000000e+00
385 8.4731058555490913e-04 1.2220073610261166e-03 1.1617447227250067e-03 -1.5236948895530766e-04 -1.6857775797720544e-03 0.0000000000000000e+00 0.0000000000000000e+00 0.0000000000000000e+00
386 9.5690115368677914e-04 1.5789951122815221e-03 -1.0539599602428442e-03 -1.3345260754669473e-03 1.3692331535707241e-03 0.0000000000000000e+00 0.0000000000000000e+00 0.0000000000000000e+00
387 6.4805392070673242e-04 1.0061568270312122e-03 -8.0707505222477776e-04 1.2638628794234784e-03 -2.8302524468235750e-04 0.0000000000000000e+00 0.0000000000000000e+00 0.0000000000000000e+00
388 4.5723579196154816e-04 -9.0942822732555171e-04 -7.8296104103453299e-05 4.6148001677524721e-04 7.8817981532813906e-04 0.0000000000000000e+00 0.0000000000000000e+00 0.0000000000000000e+00
389 4.8185400553194381e-04 -9.5748750351591953e-04 -8.8775818942968726e-05 5.9867973116113681e-04 7.5372674096794859e-04 0.0000000000000000e+00 0.0000000000000000e+00 0.0000000000000000e+00
390 9.6013047746713930e-04 -1.8359991601397977e-03 -5.1626065401818460e-04 1.0980603131474959e-03 1.5726430081756100e-03 0.0000000000000000e+00 0.0000000000000000e+00 0.0000000000000000e+00
391 8.6229359057888905e-04 1.3021268046509099e-03 -1.1152704283337398e-03 2.9024165392422606e-05 -1.7224409376517405e-03 0.0000000000000000e+00 0.0000000000000000e+00 0.0000000000000000e+00
392 7.8441489150784366e-04 1.3957574165313191e-03 -6.9724174171589717e-04 8.2602759143046473e-05 -1.5650907257956375e-03 0.0000000000000000e+00 0.0000000000000000e+00 0.0000000000000000e+00
393 1.0918063537681206e-03 1.6295857431384295e-03 -1.4281008223530395e-03 3.3534191172590301e-04 -2.1548895544021077e-03 0.0000000000000000e+00 0.0000000000000000e+00 0.0000000000000000e+00
394 1.0707320255381942e-03 -7.9382847960581503e-04 -1.9672063053586004e-03 2.0749064449198671e-03 -5.2065093415618697e-04 0.0000000000000000e+00 0.0000000000000000e+00 0.0000000000000000e+00
395 8.7608330037106119e-04 -1.1109229181323250e-03 -1.3408890407554056e-03 1.7222971956144914e-03 -3.1207811781630665e-04 0.0000000000000000e+00 0.0000000000000000e+00 0.0000000000000000e+00
396 9.1791077339611112e-04 -1.2258285350679112e-03 -1.3487367280126405e-03 1.7549238038577415e-03 -5.3286266638972145e-04 0.0000000000000000e+00 0.0000000000000000e+00 0.0000000000000000e+00
397 9.4876159943274856e-04 -1.1800479943955800e-03 1.4683936230762886e-03 1.6368923705608644e-03 -9.5594405600081609e-04 0.0000000000000000e+00 0.0000000000000000e+00 0.0000000000000000e+00
398 7.6110385160920466e-04 -8.9074724507588634e-04 1.2249009041393187e-03 1.2102846068861718e-03 -9.2082076440316081e-04 0.0000000000000000e+00 0.0000000000000000e+00 0.0000000000000000e+00
399 9.4754681495684133e-04 -1.4899846641862084e-03 1.1513129232854703e-03 1.5421068718655113e-03 -1.0977028760650223e-03 0.0000000000000000e+00 0.0000000000000000e+00 0.0000000000000000e+00
400 7.0253555663806735e-04 -1.3543419290701828e-03 3.4370654959877219e-04 -9.4540568986826784e-05 1.4007536538888014e-03 0.0000000000000000e+00 0.0000000000000000e+00 0.0000000000000000e+00
401 1.0810711624198292e-03 -1.9547670203320399e-03 8.7779077736656840e-04 -3.4490477262708106e-04 2.1320247547233400e-03 0.0000000000000000e+00 0.0000000000000000e+00 0.0000000000000000e+00
402 8.1102960594263982e-04 -1.3769764101740376e-03 8.3847608577138782e-04 -7.3868191611088925e-05 1.6189210619169622e-03 0.0000000000000000e+00 0.0000000000000000e+00 0.0000000000000000e+00
403 5.7291591491903681e-04 1.1069594742998878e-03 2.7681480019242074e-04 -5.7229973746544643e-05 -1.1436430515378592e-03 0.0000000000000000e+00 0.0000000000000000e+00 0.0000000000000000e+00
404 1.1120341037888066e-03 2.2043697007289968e-03 -9.9622895701754739e-05 -2.0052640745480958e-04 -2.2121453157034100e-03 0.0000000000000000e+00 0.0000000000000000e+00 0.0000000000000000e+00
405 8.2450117518333762e-04 1.5844449557098537e-03 4.1823563208920220e-04 -2.5534099090412834e-04 -1.6276083616744220e-03 0.0000000000000000e+00 0.0000000000000000e+00 0.0000000000000000e+00
406 8.8994939634149609e-04 1.7213497793537775e-03 4.1210585184080656e-04 7.2775649998884696e-04 1.6219383139309588e-03 0.0000000000000000e+00 0.0000000000000000e+00 0.0000000000000000e+00
407 8.9445296075190350e-04 1.7665885601647097e-03 1.9745523519209540e-04 9.2476745909575962e-04 1.5291727864611762e-03 0.0000000000000000e+00 0.0000000000000000e+00 0.0000000000000000e+00
408 7.1778186783331901e-04 1.3092341636603199e-03 5.7190662441412160e-04 7.2491216496630621e-04 1.2376311916439656e-03 0.0000000000000000e+00 0.0000000000000000e+00 0.0000000000000000e+00
409 8.5110898826116425e-04 -5.5384062882580121e-04 -1.5969021405354297e-03 -1.3567206287665415e-03 -1.0256067957102441e-03 0.0000000000000000e+00 0.0000000000000000e+00 0.0000000000000000e+00
410 1.2065539622869040e-03 2.0261526746335737e-06 -2.3965845337510336e-03 -1.8687659030822376e-03 -1.5198831149737196e-03 0.0000000000000000e+00 0.0000000000000000e+00 0.0000000000000000e+00
411 6.4819175653782208e-04 -2.8652649636586540e-04 -1.2583815833845627e-03 -9.4490440146074886e-04 -8.8606062300050701e-04 0.0000000000000000e+00 0.0000000000000000e+00 0.0000000000000000e+00
412 8.9145913460714459e-04 1.5070006826522584e-03 -9.3233976838462808e-04 -3.3560803015361169e-04 1.7491142761219835e-03 0.0000000000000000e+00 0.0000000000000000e+00 0.0000000000000000e+00
413 1.0652954317077838e-03 1.6725191524200945e-03 -1.2962538688692142e-03 -6.7436745112351110e-04 2.0179938730890195e-03 0.0000000000000000e+00 0.0000000000000000e+00 0.0000000000000000e+00
414 9.6565462559788299e-04 1.2436399825360924e-03 -1.4614563328458866e-03 -4.1758687440190132e-04 1.8832687340198028e-03 0.0000000000000000e+00 0.0000000000000000e+00 0.0000000000000000e+00
415 1.0166943652439974e-03 6.4742304422135135e-04 1.9117502139748583e-03 -1.5975910973851121e-03 1.2538732559027586e-03 0.0000000000000000e+00 0.0000000000000000e+00 0.0000000000000000e+00
416 7.3259993949834697e-04 1.1467405327047217e-03 9.0024315857931700e-04 1.2600085602807556e-03 7.4524314504414025e-04 0.0000000000000000e+00 0.0000000000000000e+00 0.0000000000000000e+00
417 8.3765194472939228e-04 1.4982105261984121e-03 7.2568941754952909e-04 1.3636932745958402e-03 9.7052246082179677e-04 0.0000000000000000e+00 0.0000000000000000e+00 0.0000000000000000e+00
418 7.8979743182213335e-04 1.4585913766510209e-03 5.8158729375414845e-04 1.3849213247939369e-03 7.5683755172009930e-04 0.0000000000000000e+00 0.0000000000000000e+00 0.0000000000000000e+00
419 9.6554934391141433e-04 -1.3647802755435317e-03 -1.3471931151324611e-03 1.7568881359199835e-03 -7.9647311485395861e-04 0.0000000000000000e+00 0.0000000000000000e+00 0.0000000000000000e+00
420 8.3638492391756205e-04 -7.8918460597170940e-04 -1.4616848201747393e-03 1.5605291460850409e-03 -5.9855458733129628e-04 0.0000000000000000e+00 0.0000000000000000e+00 0.0000000000000000e+00
421 1.3144388566816028e-03 -8.4084010941375860e-05 2.6035590994335344e-03 -1.6131011850356164e-03 -2.0704993406100813e-03 0.0000000000000000e+00 0.0000000000000000e+00 0.0000000000000000e+00
422 8.0707101834821045e-04 -5.5172515410474208e-04 1.5059526160224684e-03 -9.2742677703597524e-04 -1.3194098366355299e-03 0.0000000000000000e+00 0.0000000000000000e+00 0.0000000000000000e+00
423 9.8975473778909200e-04 -3.8226758148753341e-04 1.9295520408999906e-03 -9.7116193416420108e-04 -1.7218614366300647e-03 0.0000000000000000e+00 0.0000000000000000e+00 0.0000000000000000e+00
424 1.1003155190620058e-03 2.1007254633644226e-04 -2.1782176736300399e-03 -1.8944587581845097e-03 -1.1119730300531640e-03 0.0000000000000000e+00 0.0000000000000000e+00 0.0000000000000000e+00
425 7.3784243207798542e-04 -2.1873756425507654e-04 -1.4515403934036784e-03 -1.3380110014065230e-03 -6.1921622606517397e-04 0.0000000000000000e+00 0.0000000000000000e+00 0.0000000000000000e+00
426 9.0853764525369201e-04 1.4608700932595801e-04 -1.8008262983595326e-03 -1.6884666488074542e-03 -6.6541432014308730e-04 0.0000000000000000e+00 0.0000000000000000e+00 0.0000000000000000e+00
427 8.4338270515025844e-04 1.6589365992317844e-03 -2.3704409209943005e-04 -8.6892718991598249e-04 -1.4439670439843771e-03 0.0000000000000000e+00 0.0000000000000000e+00 0.0000000000000000e+00
428 9.0500052057827394e-04 1.6530145870714363e-03 -7.1279887326462571e-04 -1.0343183655687079e-03 -1.4826372400118769e-03 0.0000000000000000e+00 0.0000000000000000e+00 0.0000000000000000e+00
429 1.0310655367498131e-03 2.0184269592513891e-03 -3.5815965665076212e-04 8.2006894261696839e-05 -2.0574115434580510e-03 0.0000000000000000e+00 0.0000000000000000e+00 0.0000000000000000e+00
430 7.7968246624217450e-04 1.5433860812632675e-03 1.6582121463670516e-04 6.3701505231773551e-05 -1.5563220946266582e-03 0.0000000000000000e+00 0.0000000000000000e+00 0.0000000000000000e+00
431 7.8502453490164993e-04 -1.0536498715508877e-03 -1.1533895935170028e-03 -2.3747089757285424e-05 -1.5682624953417506e-03 0.0000000000000000e+00 0.0000000000000000e+00 0.0000000000000000e+00
432 4.4402723351582066e-04 -8.8311329347314047e-04 7.5890957398818285e-05 8.8430941042206266e-04 -6.9174657142414308e-05 0.0000000000000000e+00 0.0000000000000000e+00 0.0000000000000000e+00
433 7.3932406491070525e-04 -1.4272371012169713e-03 3.5554725579650789e-04 1.4769412867956661e-03 -3.4863500367514873e-05 0.0000000000000000e+00 0.0000000000000000e+00 0.0000000000000000e+00
434 8.6657458801843923e-04 1.4772217722941678e-03 8.8799545371745698e-04 4.6272368725391600e-04 -1.6681628565730553e-03 0.0000000000000000e+00 0.0000000000000000e+00 0.0000000000000000e+00
435 1.0159401369133523e-03 1.9330101237841515e-03 5.8763972519561497e-04 7.5123230470647241e-04 -1.8846301910097787e-03 0.0000000000000000e+00 0.0000000000000000e+00 0.0000000000000000e+00
436 1.0840895006937129e-03 -1.8302758284759397e-03 -1.1309912936343202e-03 2.1206045182268090e-03 -4.3861031121187737e-04 0.0000000000000000e+00 0.0000000000000000e+00 0.0000000000000000e+00
437 1.1455681559548348e-03 1.6757072356697199e-03 1.5368535521884921e-03 -1.9521304840786635e-03 1.1932707700781490e-03 0.0000000000000000e+00 0.0000000000000000e+00 0.0000000000000000e+00
438 5.8411877503868276e-04 9.3871208248799578e-04 6.8816243619364075e-04 -1.0606262913202744e-03 4.8755557338222801e-04 0.0000000000000000e+00 0.0000000000000000e+00 0.0000000000000000e+00
439 1.0166943652439979e-03 6.4742304422135157e-04 -1.9117502139748585e-03 -1.5975910973851121e-03 -1.2538732559027592e-03 0.0000000000000000e+00 0.0000000000000000e+00 0.0000000000000000e+00
440 5.2724943248904396e-04 5.4024600219597981e-04 -9.0043435039776438e-04 -8.7507756087630215e-04 -5.8730514791112832e-04 0.0000000000000000e+00 0.0000000000000000e+00 0.0000000000000000e+00
441 6.6888768413019342e-04 8.0640754823862321e-04 -1.0580905399317532e-03 -1.0518463209436692e-03 -8.2502609923215762e-04 0.0000000000000000e+00 0.0000000000000000e+00 0.0000000000000000e+00
442 1.1047297272969517e-03 2.1934301024565360e-03 -1.4689287722931439e-14 2.2064355441645677e-03 1.4084689263587594e-14 0.0000000000000000e+00 0.0000000000000000e+00 0.0000000000000000e+00
443 8.0737693113895679e-04 1.5126552838638273e-03 -5.3732234588003600e-04 1.6132094291903311e-03 -1.2732286856167149e-05 0.0000000000000000e+00 0.0000000000000000e+00 0.0000000000000000e+00
444 7.4702983110258396e-04 -1.3823568492350306e-03 5.5217807085851693e-04 -1.4737646314853705e-03 -2.3347361920856386e-04 0.0000000000000000e+00 0.0000000000000000e+00 0.0000000000000000e+00
445 5.2409112166507913e-04 -1.0287498304307312e-03 1.8534377679233971e-04 -1.0426863741092003e-03 -9.8084448339177312e-05 0.0000000000000000e+00 0.0000000000000000e+00 0.0000000000000000e+00
446 4.6584312600150357e-04 -9.1579483866556359e-04 1.5710270523039313e-04 -9.1233465110610360e-04 -1.8578110577810301e-04 0.0000000000000000e+00 0.0000000000000000e+00 0.0000000000000000e+00
447 5.1720621743348819e-04 -1.0264775803868608e-03 1.0342377687947342e-04 -9.4375805342780672e-04 4.2058496037125122e-04 0.0000000000000000e+00 0.0000000000000000e+00 0.0000000000000000e+00
448 1.3233891381073980e-03 -2.4416605087774720e-03 9.4332730402406026e-04 -2.4568275338268269e-03 9.7504754531176974e-04 0.0000000000000000e+00 0.0000000000000000e+00 0.0000000000000000e+00
449 7.1071953969843466e-04 -1.3717804477738395e-03 3.4246219433375056e-04 -1.2522761368263637e-03 6.7012577604306177e-04 0.0000000000000000e+00 0.0000000000000000e+00 0.0000000000000000e+00
450 1.2771861972535748e-03 1.8755619440078591e-03 1.7033623520881815e-03 -2.5246181027594899e-03 -3.5982893880045136e-04 0.0000000000000000e+00 0.0000000000000000e+00 0.0000000000000000e+00
451 4.7608416045569386e-04 5.7386799063347492e-04 7.5232083241603053e-04 -9.5100017427486995e-04 -3.8317452474867638e-05 0.0000000000000000e+00 0.0000000000000000e+00 0.0000000000000000e+00
452 7.1687778158178539e-04 6.9567289870520058e-04 1.2450209303552053e-03 -1.4254305982427855e-03 -1.4277726530814117e-04 0.0000000000000000e+00 0.0000000000000000e+00 0.0000000000000000e+00
453 7.6708896778237797e-04 -6.8459454988759386e-04 1.3614091744310959e-03 -1.3802236331666930e-03 6.6706778095185833e-04 0.0000000000000000e+00 0.0000000000000000e+00 0.0000000000000000e+00
454 8.2268774513566574e-04 1.3039152500712197e-04 -1.6291644651899178e-03 -7.1436354404660072e-04 -1.4806799326382413e-03 0.0000000000000000e+00 0.0000000000000000e+00 0.0000000000000000e+00
455 1.1060809761231384e-03 -5.7716923502393758e-04 -2.1160760575027852e-03 -9.7828754913716932e-04 -1.9810208614335729e-03 0.0000000000000000e+00 0.0000000000000000e+00 0.0000000000000000e+00
456 8.4782676975396563e-04 1.1596276957035012e-03 1.2219626474948128e-03 1.2247789237032486e-03 1.1704485995783385e-03 0.0000000000000000e+00 0.0000000000000000e+00 0.0000000000000000e+00
457 5.4641935652320172e-04 1.0722844817926901e-03 1.8407885151573066e-04 -9.5015080930043665e-04 -5.3866760104154005e-04 0.0000000000000000e+00 0.0000000000000000e+00 0.0000000000000000e+00
458 8.0325237614813126e-04 1.4372055229318419e-03 -6.9447919994590924e-04 -9.8065035426742574e-04 1.2707711388759381e-03 0.0000000000000000e+00 0.0000000000000000e+00 0.0000000000000000e+00
459 5.4570813690822532e-04 8.0307290306328349e-04 -7.3218011569467121e-04 -6.8819751624048849e-04 8.4626758671518983e-04 0.0000000000000000e+00 0.0000000000000000e+00 0.0000000000000000e+00
460 8.4731058555490924e-04 1.2220073610261163e-03 -1.1617447227250065e-03 -1.5236948895530766e-04 1.6857775797720542e-03 0.0000000000000000e+00 0.0000000000000000e+00 0.0000000000000000e+00
461 7.0654980658191465e-04 1.2404217778428971e-03 -6.6392433987629593e-04 -9.8132390006714154e-05 1.4083382106400049e-03 0.0000000000000000e+00 0.0000000000000000e+00 0.0000000000000000e+00
462 1.1057532456959370e-03 4.2186171851309732e-04 2.1549715586657724e-03 -2.3210546260584011e-04 -2.1961667424457831e-03 0.0000000000000000e+00 0.0000000000000000e+00 0.0000000000000000e+00
463 9.7773553000787350e-04 9.5549971354261590e-04 1.6926915255255559e-03 -1.9989193841781549e-04 -1.9426777764804171e-03 0.0000000000000000e+00 0.0000000000000000e+00 0.0000000000000000e+00
464 1.0983022362415574e-03 8.0917696228763444e-04 2.0254199734854269e-03 -5.0997552466709197e-04 -2.1334554734592044e-03 0.0000000000000000e+00 0.0000000000000000e+00 0.0000000000000000e+00
465 9.0500052057827405e-04 1.6530145870714366e-03 7.1279887326462571e-04 -1.0343183655687079e-03 1.4826372400118769e-03 0.0000000000000000e+00 0.0000000000000000e+00 0.0000000000000000e+00
466 1.2213640183850252e-03 1.9251871415377031e-03 1.4717279493555325e-03 -1.6038626515316164e-03 1.8374389957560089e-03 0.0000000000000000e+00 0.0000000000000000e+00 0.0000000000000000e+00
467 7.4722467114167891e-04 1.4136874620716887e-03 4.6181590262689469e-04 -9.9852042267433751e-04 1.1099795702036071e-03 0.0000000000000000e+00 0.0000000000000000e+00 0.0000000000000000e+00
468 1.0000551637022147e-03 -1.3237157629846562e-03 -1.4829428575287517e-03 -1.9798478675342760e-03 -2.6349967398675686e-04 0.0000000000000000e+00 0.0000000000000000e+00 0.0000000000000000e+00
469 6.8840216828433521e-04 -1.1570781814883274e-03 -7.3542059595695770e-04 -1.3675379390081896e-03 -1.4668400128808090e-04 0.0000000000000000e+00 0.0000000000000000e+00 0.0000000000000000e+00
470 4.5069238744417878e-04 -8.9610890335491697e-04 7.8677330008818618e-05 7.9189514755410482e-04 4.2837434688709406e-04 0.0000000000000000e+00 0.0000000000000000e+00 0.0000000000000000e+00
471 1.2417538439842173e-03 -2.3465345162374950e-03 7.5392508309433785e-04 2.0934959465325484e-03 1.3284019716954154e-03 0.0000000000000000e+00 0.0000000000000000e+00 0.0000000000000000e+00
472 6.5767983394084410e-04 -1.2818476009567360e-03 2.7267994203725025e-04 1.1969401235560268e-03 5.4231223896329423e-04 0.0000000000000000e+00 0.0000000000000000e+00 0.0000000000000000e+00
473 6.0668429538914220e-04 -1.2021308437028953e-03 -1.3437294775165231e-04 1.2086919342432099e-03 -8.7031807932613594e-05 0.0000000000000000e+00 0.0000000000000000e+00 0.0000000000000000e+00
474 9.5209957224461279e-04 -1.7532095879242936e-03 -7.0745213505207447e-04 1.8966264476277140e-03 -1.4493598907571321e-04 0.0000000000000000e+00 0.0000000000000000e+00 0.0000000000000000e+00
475 7.3932406491070547e-04 -1.4272371012169713e-03 -3.5554725579650789e-04 1.4769412867956654e-03 3.4863500367514873e-05 0.0000000000000000e+00 0.0000000000000000e+00 0.0000000000000000e+00
476 7.8803612499231596e-04 -6.3332042640879948e-04 -1.4343140940949301e-03 1.5550860880387657e-03 2.4629794842077104e-04 0.0000000000000000e+00 0.0000000000000000e+00 0.0000000000000000e+00
477 5.6172303011753539e-04 -5.8185137460950323e-04 -9.5609187097530648e-04 1.1205134064453167e-03 6.9368301118477392e-05 0.0000000000000000e+00 0.0000000000000000e+00 0.0000000000000000e+00
478 8.6058764823312127e-04 1.3321144910938870e-03 1.0772799610308469e-03 -1.3155241265107817e-03 1.1062259592175281e-03 0.0000000000000000e+00 0.0000000000000000e+00 0.0000000000000000e+00
479 7.8640006574930360e-04 1.3984061849341011e-03 7.0397941474684286e-04 -1.2792108231043221e-03 9.1195819622803516e-04 0.0000000000000000e+00 0.0000000000000000e+00 0.0000000000000000e+00
480 5.3703795851350704e-04 9.5864056758829101e-04 4.7812166100873985e-04 -7.8697106762999776e-04 7.2951661478620571e-04 0.0000000000000000e+00 0.0000000000000000e+00 0.0000000000000000e+00
481 1.1324883190491791e-03 -1.8733225558063846e-03 1.2453844126808266e-03 -2.1899509049071327e-03 5.6413700080653478e-04 0.0000000000000000e+00 0.0000000000000000e+00 0.0000000000000000e+00
482 7.9356260518552945e-04 -1.4814772895031737e-03 5.4498379021035177e-04 -1.5671214221524234e-03 2.4066756298554544e-04 0.0000000000000000e+00 0.0000000000000000e+00 0.0000000000000000e+00
483 6.8840216828433564e-04 -1.1570781814883272e-03 7.3542059595695770e-04 -1.3675379390081898e-03 1.4668400128808098e-04 0.0000000000000000e+00 0.0000000000000000e+00 0.0000000000000000e+00
484 8.3123449074862569e-04 9.5059300412215326e-04 -1.3519681295572946e-03 -8.0724284980698651e-04 -1.4514573926317339e-03 0.0000000000000000e+00 0.0000000000000000e+00 0.0000000000000000e+00
485 1.0952368973312226e-03 7.9741411255247025e-04 -2.0237147107772329e-03 -8.4530490424599347e-04 -2.0174406591451917e-03 0.0000000000000000e+00 0.0000000000000000e+00 0.0000000000000000e+00
486 9.3815615444341497e-04 6.0987447968054219e-04 -1.7615829252056634e-03 -9.5487433672241328e-04 -1.6126820398062449e-03 0.0000000000000000e+00 0.0000000000000000e+00 0.0000000000000000e+00
487 8.2450117518333729e-04 1.5844449557098528e-03 -4.1823563208920203e-04 -2.5534099090412834e-04 1.6276083616744218e-03 0.0000000000000000e+00 0.0000000000000000e+00 0.0000000000000000e+00
488 8.7575059702267675e-04 3.6691477058615118e-04 1.7007311875796372e-03 1.5226353538511776e-03 -8.6227103018494586e-04 0.0000000000000000e+00 0.0000000000000000e+00 0.0000000000000000e+00
489 1.1120341037888068e-03 2.2043697007289968e-03 9.9622895701754753e-05 -2.0052640745480958e-04 2.2121453157034100e-03 0.0000000000000000e+00 0.0000000000000000e+00 0.0000000000000000e+00
490 7.7968246624217439e-04 1.5433860812632677e-03 -1.6582121463670519e-04 6.3701505231773537e-05 1.5563220946266585e-03 0.0000000000000000e+00 0.0000000000000000e+00 0.0000000000000000e+00
491 8.4277025894078457e-04 1.2183965397864710e-03 -1.1491888030927936e-03 -1.7271616770469299e-04 -1.6751002344981779e-03 0.0000000000000000e+00 0.0000000000000000e+00 0.0000000000000000e+00
492 6.3338696631144893e-04 7.0872712298181281e-04 -1.0419458983203381e-03 -2.8522709976510439e-05 -1.2656367355547309e-03 0.0000000000000000e+00 0.0000000000000000e+00 0.0000000000000000e+00
493 5.7209770638622472e-04 7.5239775395617150e-04 -8.5700274082714750e-04 -1.0446357659990859e-03 4.6442015193548297e-04 0.0000000000000000e+00 0.0000000000000000e+00 0.0000000000000000e+00
494 1.0752204944611578e-03 1.6197427015407135e-03 -1.3866574998727507e-03 -1.8529228842218586e-03 1.0865811926774412e-03 0.0000000000000000e+00 0.0000000000000000e+00 0.0000000000000000e+00
495 5.3554143548441811e-04 8.5697605428015639e-04 -6.3632935982977366e-04 -9.7810004382886022e-04 4.3460251621502328e-04 0.0000000000000000e+00 0.0000000000000000e+00 0.0000000000000000e+00
496 8.9414461958991370e-04 -1.9185907820567252e-05 -1.7761406449142488e-03 1.7105852084131632e-03 5.1541832899344307e-04 0.0000000000000000e+00 0.0000000000000000e+00 0.0000000000000000e+00
497 1.1129784663737013e-03 3.9235411418518358e-04 -2.1762984406897847e-03 2.1901571384630456e-03 3.7785829355394527e-04 0.0000000000000000e+00 0.0000000000000000e+00 0.0000000000000000e+00
498 9.1576656587259069e-04 5.5249782109830544e-04 -1.7337953159521627e-03 1.7482836991957818e-03 5.3939530842495075e-04 0.0000000000000000e+00 0.0000000000000000e+00 0.0000000000000000e+00
499 8.5756052026528349e-04 4.2180119836139575e-04 1.6515124617373540e-03 -1.2113015336916333e-03 1.2118293010752049e-03 0.0000000000000000e+00 0.0000000000000000e+00 0.0000000000000000e+00
500 1.1681186559562825e-03 -5.9669569690971102e-05 2.3196413497958597e-03 -1.5291635230706277e-03 1.7611650254092991e-03 0.0000000000000000e+00 0.0000000000000000e+00 0.0000000000000000e+00
501 8.4433532551571940e-04 1.6797214059568405e-03 -5.2802027061431987e-05 1.6669461902471261e-03 2.5651796410299091e-04 0.0000000000000000e+00 0.0000000000000000e+00 0.0000000000000000e+00
502 5.6716944294194242e-04 1.1090141485344456e-03 2.1533118417845065e-04 1.1288582797890430e-03 1.0337228943572544e-04 0.0000000000000000e+00 0.0000000000000000e+00 0.0000000000000000e+00
503 1.1830944982841507e-03 1.1230106279424732e-04 -2.3469620411931749e-03 -5.6691277637457046e-04 2.2932149611640364e-03 0.0000000000000000e+00 0.0000000000000000e+00 0.0000000000000000e+00
504 1.0983022362415580e-03 8.0917696228763444e-04 -2.0254199734854269e-03 -5.0997552466709197e-04 2.1334554734592044e-03 0.0000000000000000e+00 0.0000000000000000e+00 0.0000000000000000e+00
505 7.2541728079036731e-04 3.8746565269767789e-04 -1.3890534447107143e-03 1.4298291641992532e-03 -2.3961510248771023e-04 0.0000000000000000e+00 0.0000000000000000e+00 0.0000000000000000e+00
506 6.9432022493355681e-04 3.8508027663608236e-04 -1.3257680301290713e-03 1.3397984184741116e-03 -3.6134389727449735e-04 0.0000000000000000e+00 0.0000000000000000e+00 0.0000000000000000e+00
507 4.4541112293178004e-04 -5.2087548065766554e-04 -7.1633872405183385e-04 -8.8981902465095448e-04 -3.4231919664280465e-05 0.0000000000000000e+00 0.0000000000000000e+00 0.0000000000000000e+00
508 7.1367134916888622e-04 -6.2278424425758999e-04 -1.2764198322889741e-03 -1.4188591007003779e-03 -1.4369613191347403e-04 0.0000000000000000e+00 0.0000000000000000e+00 0.0000000000000000e+00
509 5.7209770638622483e-04 7.5239775395617150e-04 8.5700274082714750e-04 -1.0446357659990857e-03 -4.6442015193548302e-04 0.0000000000000000e+00 0.0000000000000000e+00 0.0000000000000000e+00
510 6.8691577831623109e-04 7.2261250105488050e-04 1.1621084672624948e-03 -1.2921136153021431e-03 -4.6260539834508277e-04 0.0000000000000000e+00 0.0000000000000000e+00 0.0000000000000000e+00
511 1.0404419581795735e-03 9.7785172853848850e-04 1.8180261960712961e-03 -1.8325670052898842e-03 -9.8062455080598484e-04 0.0000000000000000e+00 0.0000000000000000e+00 0.0000000000000000e+00
512 1.1209956039882165e-03 1.2823998616424545e-03 -1.8167288436922874e-03 -1.3410481170495756e-03 -1.7930011266140600e-03 0.0000000000000000e+00 0.0000000000000000e+00 0.0000000000000000e+00
513 1.1103539061819330e-03 1.2691777452709847e-03 -1.7976329258625344e-03 -1.5788872206103496e-03 -1.5579013609057109e-03 0.0000000000000000e+00 0.0000000000000000e+00 0.0000000000000000e+00
514 1.2213640183850248e-03 1.9251871415377029e-03 -1.4717279493555334e-03 -1.6038626515316164e-03 -1.8374389957560087e-03 0.0000000000000000e+00 0.0000000000000000e+00 0.0000000000000000e+00
515 1.1527784196474762e-03 2.2755714872366088e-03 -1.9156196310146875e-04 -2.2602009164569142e-03 4.4161486006644878e-04 0.0000000000000000e+00 0.0000000000000000e+00 0.0000000000000000e+00
516 9.8607239024553961e-04 1.9215864108111920e-03 -3.7745639388352820e-04 -1.8674040977419454e-03 6.2691452978693221e-04 0.0000000000000000e+00 0.0000000000000000e+00 0.0000000000000000e+00
517 1.0159401369217180e-03 1.9330101238007439e-03 -5.8763972519748197e-04 7.5123230471199544e-04 1.8846301910255619e-03 0.0000000000000000e+00 0.0000000000000000e+00 0.0000000000000000e+00
518 6.5685911435250520e-04 1.1622143889576917e-03 -6.0061243207874674e-04 6.0874779114130826e-04 1.1628780598156516e-03 0.0000000000000000e+00 0.0000000000000000e+00 0.0000000000000000e+00
519 8.8099207819232158e-04 2.2371682885513180e-04 1.7361758530997366e-03 7.8882579982402054e-04 -1.5735091309347343e-03 0.0000000000000000e+00 0.0000000000000000e+00 0.0000000000000000e+00
520 9.1436448529381000e-04 -1.9255292670814715e-04 1.8082474192465429e-03 9.3916899446855762e-04 -1.5664566046695800e-03 0.0000000000000000e+00 0.0000000000000000e+00 0.0000000000000000e+00
521 6.0558017161649281e-04 2.0717769325466392e-04 1.1873912875559238e-03 6.5633333855716651e-04 -1.0169841619366501e-03 0.0000000000000000e+00 0.0000000000000000e+00 0.0000000000000000e+00
522 9.2163144769734481e-04 8.3953908302646435e-05 -1.8296209808415461e-03 1.8128042088750201e-04 -1.8322820478562814e-03 0.0000000000000000e+00 0.0000000000000000e+00 0.0000000000000000e+00
523 1.0000655566546270e-03 5.6831086846136287e-04 -1.9009133197011104e-03 6.0170030460403539e-06 -1.9980856595195910e-03 0.0000000000000000e+00 0.0000000000000000e+00 0.0000000000000000e+00
524 5.7117406763631130e-04 3.7088134182405771e-04 -1.0754407429682906e-03 1.3309233768210352e-04 -1.1338163865579969e-03 0.0000000000000000e+00 0.0000000000000000e+00 0.0000000000000000e+00
525 8.1537941955125699e-04 1.4111817535871856e-03 7.9293307251304495e-04 1.4801351056877340e-03 -6.8162189141070272e-04 0.0000000000000000e+00 0.0000000000000000e+00 0.0000000000000000e+00
526 9.1813601335066384e-04 1.2122799538761017e-03 1.3615779584709607e-03 1.6733639523115588e-03 -7.5141563764024167e-04 0.0000000000000000e+00 0.0000000000000000e+00 0.0000000000000000e+00
